H18-9-1	0.0036954 -0.00068257 -0.00020753 -0.0020869 0.0017594 -0.0010743 -0.00024683 -0.001315 -0.00047188 0.0015692 0.0011922 0.0030584 -0.0022739 -0.0019997 0.0029477 0.0022499 -0.0016317 0.0019875 -0.00010736 3.2708e-05 0.0022735 -0.00080644 0.00040383 0.0014887 0.0017166 -0.001088 -0.0009339 0.0016055 0.00059306 -0.0001477 0.0020526 -0.00040371 0.00040091 0.0017182 0.00061969 -4.7924e-05 -0.00081269 -0.0017314 -0.0034806 0.00028741 0.00036738 0.0036183 0.0037026 -0.00064601 0.00012908 -0.0040721 0.0047863 0.0032068 0.0033401 0.00026248 -0.00096278 0.0020862 0.0024853 0.0012555 -0.00027579 0.0013849 0.0024135 -0.0014091 -0.00023565 -0.0005555 0.0011888 -0.0017634 0.0029421 0.0021756 -0.0010246 -0.0021842 -0.002943 0.0023207 -0.0050329 0.0019486 0.0013755 -0.00082329 -0.00071525 -0.0039106 0.0052873 -0.001542 -0.00025231 -0.0015627 0.00099498 0.0015136 0.0041 -0.00047384 0.0012156 5.711e-05 0.0011235 -0.0010838 0.0034493 -2.0667e-05 0.0012109 -6.3985e-05 6.2089e-05 -0.0016679 0.0010024 -0.0029234 -0.0013627 -0.00051158 -0.0033512 -0.001939 0.0016855 -0.0037841
H18-20-1	0.0024326 0.0022925 0.0015578 -0.0021213 0.0016029 0.0024844 -0.001858 0.0014989 0.00054553 0.0029224 0.00023312 0.0017681 0.0013965 0.0008271 0.0015142 -0.0010855 -0.0011511 -9.2557e-05 -0.0027311 0.00057316 0.0004014 0.0028207 0.00073417 -0.0032059 -0.0011419 -0.0015708 0.00011819 -0.0020263 0.0018639 0.00020503 -0.00071714 0.0010154 -0.00093101 -0.00037987 -0.001578 0.0012593 -0.0014325 -0.00069152 0.00047861 0.00093886 -0.0010253 0.0009438 0.0030992 -0.00011715 0.00016112 -0.0013819 0.001727 0.00017156 -0.00063293 -0.00038541 0.0003576 0.00029087 0.00016043 -0.0019683 -2.4464e-05 -0.00010131 -0.00026338 0.0015127 0.0015228 0.00046743 0.00032851 0.0002402 0.0025967 -0.00082269 -7.6412e-05 -0.00040182 -0.0019149 0.0011171 0.0015274 -0.00055611 -0.0011011 0.0023126 -0.00024308 -0.00079247 0.001114 -0.0020579 -0.00025776 0.00093933 0.0034387 -0.0004752 0.00037282 0.0012207 0.0016467 -0.00067322 0.00024623 -0.00081325 -0.0014857 -0.00021821 -0.0005949 0.001633 9.6815e-05 -0.00035401 0.0039772 -0.0016808 -0.00063724 -0.0021181 5.0173e-05 0.0018294 -0.0029474 -0.0012782
H18-9-3	-0.00010735 -0.0024453 0.0018528 -0.00060382 0.00066102 -0.0016224 0.00059793 6.7161e-05 -0.00031144 0.0008536 -0.00081491 -0.00072499 0.0013887 -0.002148 0.0028571 -0.0015403 -0.0012575 0.0019932 -0.00045038 0.001016 0.0019902 0.00040403 0.001188 -0.0008658 -0.00021891 -0.001026 0.0024318 0.00089337 0.0030426 -0.00015509 -7.2275e-05 -0.0011731 -0.00074669 0.0016875 0.00025278 0.0018452 0.0010736 -0.0020332 -0.0016068 0.00055786 -0.00069324 0.00080167 0.00096144 1.8451e-06 0.0030679 -0.0026889 0.0035127 0.0012187 -0.00067967 -0.00019652 -0.0017878 0.00027616 -0.0004788 0.0002197 0.0009398 0.00093884 8.4665e-05 -0.00031688 0.00037547 0.0012278 0.0016902 0.0013686 0.0020679 0.0019005 0.00052187 0.0027391 -0.0030287 0.00083882 -0.0016126 -0.00031569 -0.0024204 -0.001286 0.00093639 -0.00093426 -0.00018911 -0.0028493 -0.0011505 0.0014261 0.0020698 0.00063638 -0.00019449 -0.0019356 0.0011192 -0.0031971 0.0032812 0.0004452 0.00053396 0.00080719 -0.0013938 0.00091546 0.00026383 -0.0024709 0.0024885 -0.0024069 0.00045594 -0.0016336 -9.6815e-05 -0.0033377 -0.0012857 -0.00291
H18-9-2	-0.00067464 -0.002636 0.0024068 -0.0011372 0.0011639 0.00021276 0.00058684 0.0012819 -0.00044175 -0.00086799 -0.0023917 0.00032874 -0.0012709 -0.0011038 0.00052244 0.001219 -0.00074771 0.0028022 -0.0021647 -0.00054311 0.0014923 7.1903e-05 0.002605 0.0015706 -0.00074564 -0.0027916 -0.00016179 0.0035749 0.0020899 -0.0016499 0.0013268 -0.00066506 0.0010966 0.0016613 -0.00021402 0.001594 0.0021502 0.00068267 -0.0039571 -0.00024039 -0.0019853 0.00053604 0.0011451 -0.0033503 0.0043253 -0.0012592 0.0023867 0.0012569 -0.0011635 -0.00049671 -0.00096942 -0.0010586 -0.00053103 0.00088554 0.0019506 -0.0015586 0.0011904 6.4035e-05 0.001775 -0.0021573 -0.0011157 -0.00015219 0.0013636 -0.0012608 0.0010954 -0.00030315 -0.0026524 0.0010617 0.00049279 4.1952e-05 -0.00020277 -0.00055493 -0.0006934 -0.0040472 -0.00027023 -0.00036131 0.00068883 0.00028295 -0.0011694 -6.5933e-05 0.00018199 -0.0026059 0.0019394 0.0010859 0.0010563 0.0010993 0.0011219 -0.00049316 -0.0017387 1.2282e-05 1.206e-05 -0.0031776 -0.00057009 -0.0024875 0.00023019 -0.0010496 -0.001583 0.00056799 0.0012923 -0.0016619
H18-26-5	0.0026632 -0.0008683 -0.00035142 -7.2273e-05 0.00038682 0.00037658 -0.003099 -7.8656e-05 0.0027217 -4.0988e-06 -0.00099027 0.001242 -0.0020022 0.0016049 -0.0007335 0.0025598 0.0014264 -0.00049383 -0.0018256 -0.0017371 0.0030274 0.0002788 -0.0037917 -0.0012192 -0.00095957 0.0029122 0.001874 -0.0014517 -0.00035671 0.0015575 0.00062685 0.0009354 0.00010479 0.00034771 -0.00078479 0.00073448 0.00033822 -0.001084 0.0011396 -0.0005678 0.0017082 0.00064201 -0.00021759 0.0016545 0.001976 -0.003205 0.0016753 -0.0014597 -0.00077394 0.00016113 -0.0033522 0.001988 -0.0018332 -0.0019312 0.0014157 -0.0010008 -0.00040146 0.0014309 -0.00063087 0.00036791 -0.0029421 -0.0010328 0.0012682 0.0025181 -0.00033248 0.0016098 0.0012484 0.0021111 -0.00049169 0.0013989 -0.0012141 0.0013598 -0.00079079 0.00072953 -0.00010541 -0.0019609 0.00056533 0.00132 0.0029269 0.00067905 0.0015316 0.00014285 0.00015548 -0.0011581 0.0022622 -0.0011184 0.00050595 0.00035012 0.00091542 -0.0034607 0.00092883 -0.0023259 0.0042489 0.00045963 -0.0007558 -0.0010978 -0.001892 -0.00020432 -0.0010578 0.00042191
H18-27-U	-0.0012838 0.0018724 -0.0002655 -0.0011036 0.00061411 0.00058681 -0.0009488 -0.0022134 0.0022173 0.0028208 0.00034864 0.00038382 -0.00029246 0.00099293 -0.00035717 0.00096633 0.0006335 0.0010939 -0.00020786 -0.0018626 0.00071901 0.0022085 -0.00055884 -0.0020958 0.00035241 -0.00073138 0.00090626 -2.0467e-05 -0.00044678 0.0033628 -0.0021164 -0.00015737 -0.0030079 -0.00014785 -0.0020117 -0.001246 -0.0011757 -0.00062704 -1.7817e-05 0.0010432 0.00079644 0.0018212 0.0016836 0.00071224 -0.0011604 0.00056081 0.00081849 0.0012274 -0.00097255 0.0009514 -0.0036251 0.0022943 -0.0019985 0.00059408 -0.00014123 -0.00063861 -0.0010702 4.368e-05 0.0015706 0.00062484 -0.0011401 0.00059494 0.0001257 0.0010249 0.00018022 -0.00035406 -0.0016688 0.00036119 0.0013277 0.00061162 -0.00013429 0.0016522 0.00042214 -0.0016985 -0.0006911 -0.00054248 0.0013281 0.0011164 0.0015046 -0.0027692 -0.001816 0.0011978 0.0028265 -0.0021814 5.2558e-05 -0.0021534 0.0014715 0.0016628 -0.00034127 -0.001955 -0.0011948 0.00085466 0.0029497 -0.0022399 0.001167 -0.001875 0.0011962 0.0019418 -0.00064999 9.855e-05
H18-20-3	0.0017031 0.0010026 0.00061373 -0.00044237 0.00028583 0.0028694 -0.0013767 0.00018822 0.0014877 0.00056322 9.5971e-05 0.00013439 -0.00035334 0.000817 -0.00088114 -0.0019291 0.00087233 0.001195 -0.00080677 0.001999 0.00077957 0.0034652 -0.00043887 0.00051908 -0.0023007 0.0012691 0.00049064 -0.00052503 -0.0012466 -0.0021974 0.00021137 0.0021985 0.00032828 -0.0015801 -0.0023814 -1.7e-05 -0.00091407 -0.00092791 -0.0007906 -0.00036964 -0.0015005 0.00085467 -0.00098207 -0.00012693 0.0020104 -0.0018139 0.0020683 -0.00086734 -4.3089e-05 0.0015755 -0.00047996 0.00080671 -0.00031691 -1.4561e-05 -0.00098882 -0.0012241 -0.0019069 0.0016086 0.0014641 -0.0002213 -0.0016788 0.001035 0.0024595 -5.3042e-05 -0.001266 -0.0003154 0.00087853 -0.0015538 -0.00081709 -0.001485 0.00092465 0.00020026 0.00022465 -0.00052897 0.0015972 0.0002269 -0.00021431 -0.00038272 0.0011911 0.00030122 0.0005494 0.0013956 0.0027009 0.00037645 0.002809 -7.864e-05 1.2993e-05 -0.0001579 -0.00091635 -0.00062566 0.00071289 0.0010991 0.0018624 0.00083122 -0.00092454 -0.00061147 0.00056992 0.00092441 2.5563e-05 -0.0027839
H18-1-1	-0.00052432 5.9622e-05 -0.00075224 -0.0022952 0.0018095 0.00073671 -0.00054052 -0.0002321 0.0011858 0.0012418 -0.0014623 0.0017034 -0.0011811 0.0015559 0.0015804 -0.0017978 -0.00067311 -0.00085396 -0.00024787 -0.00027053 0.00041391 0.00091632 0.00044331 0.00034131 -0.0011629 -0.00088353 0.0024331 0.0009157 0.00092313 0.00087841 0.0010632 -0.00062101 -0.00036792 -0.00050923 -0.001717 0.0010436 0.00060201 -0.00063865 0.00072468 0.0020861 0.0012872 0.00031261 0.0006761 0.00060415 0.0012903 -0.0015629 0.0014269 -0.00043552 -0.00057226 0.0034529 -0.0024478 -0.0008451 4.3053e-05 0.00015207 -0.00021394 0.00019651 -0.00021159 -0.00047827 -0.00066207 0.00045882 -0.0012964 0.0016208 0.00087525 0.00079337 -0.00088334 0.00071439 -0.0010771 -0.00031459 -0.0010351 -0.0010173 0.0010963 0.00063297 -0.00052531 0.0011011 -0.00076643 0.0013398 -0.0010091 0.0017127 0.001659 7.3537e-05 0.0013202 -0.00039571 0.002282 -5.1562e-05 0.0019428 -0.00018602 -0.00027156 0.0015354 -0.0020654 0.00011121 0.00049512 -0.0007852 0.0014084 -0.00068314 -0.00032238 -0.00025055 -0.00144 0.00052551 -0.00082234 -0.00085736
H18-20-2	7.3026e-05 0.00017204 -0.001119 -0.00027137 0.001478 0.0025394 0.0013133 0.00022503 0.0014415 0.0016482 -0.00019997 0.0005767 0.0019011 0.00071718 0.00086514 -0.00077274 -0.00028272 0.0022471 -0.0017063 -0.00029643 0.00013336 0.00030699 -0.00084593 -0.0032444 -1.7322e-05 -0.0021353 -5.2596e-05 -0.00081349 0.0017468 0.0011405 0.00030841 0.00020759 -0.00087882 -0.0013347 -0.0026841 -0.00089792 -0.00010118 -0.00031709 0.00087389 -0.00047672 -8.3479e-05 0.00058259 0.0024569 0.00033503 -0.00088893 -0.00093179 -0.00027378 4.5695e-05 -0.0022733 -0.0015641 -0.00071612 0.00073237 -0.00013899 0.00050743 0.00025845 -0.0007706 0.00038904 -0.00017527 -0.00012727 0.0027638 -0.00070524 0.00096682 0.0019028 0.00037834 0.00058397 -0.001116 -0.0013646 0.00034341 0.0027764 3.4914e-05 -0.00067918 0.0016214 -0.00058275 -0.00037347 -0.00035145 -0.0004801 0.001002 0.0011826 0.0026125 -0.00058326 -0.00010186 0.0025903 0.00017526 -0.0018932 -0.00076776 -0.0012147 0.001841 -0.0007948 -0.00098385 0.0014875 0.00032042 0.00064838 0.0038245 -0.0034598 -0.00098386 -0.00071537 0.00095759 0.001023 -0.00063389 -0.0012322
H18-28-1	0.0011487 0.00078737 -0.00039624 0.001144 0.0018964 0.0022615 -0.0016301 -0.00053211 0.00048565 -0.00090653 -0.00062554 0.0023564 0.00065553 0.0010119 -0.0006851 -0.0022174 0.0011904 -0.0013029 -0.0016334 -0.00061059 -0.0002796 6.6104e-05 -0.00085561 -0.00040185 -0.0017925 -0.00061289 0.00080155 0.00030529 -0.00070533 -0.0002923 0.00013325 -0.0017603 0.00063485 -0.0014943 -0.00075304 0.0011296 -0.00065036 0.0011253 -0.00044434 0.0017047 -0.0015193 0.0027794 0.00083833 0.0010225 0.0022126 -0.0021416 0.00073907 -0.0012921 -0.0002242 0.0021167 -0.0020648 -0.0014079 -2.2325e-05 0.00082994 0.0018468 0.0010615 -0.00016472 0.0021896 0.0023253 -0.0010653 0.0012295 0.00087406 0.0027208 0.0011428 0.0014693 0.00126 -0.0028265 -0.00033293 -0.0018002 0.00028538 0.00031829 0.001089 0.0018275 0.0012149 -0.001321 -0.00051572 -0.0017475 -0.0021992 -0.00029024 -0.0014406 0.00196 0.00077896 0.00066629 0.0022683 1.4035e-05 -0.00073748 -0.00078114 0.00040402 -0.0023776 0.0014501 0.0024807 -0.00091948 0.0015558 -0.00029375 -0.0011541 -0.0016802 0.00010523 -0.00079852 -0.0012994 -0.0025186
H18-28-3	2.969e-05 0.0016382 -6.2862e-05 -0.0017697 0.00064879 0.0019675 0.00031195 -0.00026838 0.001087 0.0017038 -0.00098499 0.00057069 0.001086 0.00071652 -0.00043147 -0.0011749 7.7575e-05 0.00034086 -0.00036197 -0.0019409 -0.0004155 0.0016558 0.0010181 -2.896e-05 -0.0004238 -0.0012544 -5.5063e-05 -0.00067628 -0.0014927 0.00053156 -0.0009265 -0.00022976 -0.00033637 -0.0010857 -0.0024183 0.00048577 -0.00075857 -0.00099831 -0.00073762 -0.00017399 0.00091514 0.0026372 0.00056292 0.0018374 0.00054523 -0.0011276 0.00058272 -0.00043861 3.9982e-05 0.00046947 -0.0025087 0.0023197 -0.0012553 -0.0002397 -1.2042e-05 -0.00048709 -0.00036176 0.00057516 0.0018931 0.0013246 -0.00096998 0.00050663 0.0031986 0.0012304 0.00010711 -0.00023196 -0.0011445 0.0010574 0.00069931 0.00047276 -0.0019219 0.00068738 -0.00061825 0.00011208 -0.00059062 -0.00049871 0.0012047 0.001179 0.0010267 -0.0012753 -0.0011535 0.00042108 0.0017571 -0.0010874 -0.00044695 -0.0019058 -5.446e-05 -0.00034141 -0.0013245 -0.00015179 0.00075822 0.00044594 0.0030714 -0.0019686 5.8364e-05 -0.0012696 0.00040881 0.001162 -0.0018448 -0.00031233
H18-28-2	0.0010452 0.00063729 -0.00018981 -0.0010709 0.0011012 0.0022069 -0.0006019 -6.709e-05 0.00076344 0.0012651 -0.00035127 0.0002582 0.00024694 0.0010477 -0.00060913 -0.0010041 0.001104 0.00039249 0.00024871 -0.0016109 8.4777e-05 0.00056327 0.00058383 8.4777e-05 -0.0011273 -0.0010663 -0.00090801 -0.00073969 -0.0010904 0.00045913 -0.00065375 -0.00016583 0.00038429 -0.0017591 -0.0011424 0.0010717 -0.0014492 -0.00091629 -0.0010192 0.00098274 0.00065372 0.0026462 0.0015075 0.0011836 0.0011671 -0.0014503 0.00011351 0.00080439 -0.00031639 0.0004862 -0.0020206 0.0014808 -0.001003 -0.00034672 0.0009913 -0.00038292 -0.0018729 0.0015587 0.0022745 0.0010638 0.0013735 0.0012004 0.0022217 0.002399 0.0001649 -0.0006432 -0.0013905 0.00045535 -0.00034298 -0.00072022 -0.00078115 0.0016852 0.0010387 -0.00010642 0.00040611 -0.00033681 0.00054219 0.00025373 0.0016752 -0.00084602 0.00029723 0.00072987 0.00082505 0.00056557 0.00098547 -0.0005701 -1.0317e-05 0.00051021 -0.0010861 0.00033599 0.0015625 0.00053304 0.0025865 -0.0015678 -0.00021925 -0.0018874 -5.2777e-05 0.0005437 -0.0019731 -0.00040775
H18-15-3	-5.5443e-06 0.00027112 0.0003155 -0.00022442 0.0019927 0.001126 7.7804e-05 -0.0012791 0.0008631 0.0017062 -0.00030914 -0.00069042 0.00023247 0.00015197 -0.00099528 0.00021862 0.0016511 0.0016755 -0.0012184 -0.00088034 0.00012939 0.0022767 0.00152 -0.00030185 -0.00074945 -8.6723e-05 0.0010768 0.0001765 0.0004895 0.00017252 -0.0012223 -0.0010807 -0.00066049 -0.0021601 -0.0013164 0.00065046 -0.0011672 -0.00056391 -0.00027306 -0.0008292 -0.00013764 0.0009758 0.00022844 0.0026042 0.0012412 -0.00018212 -3.1838e-05 9.712e-05 -0.00086289 0.0012322 -0.0022651 0.0016149 -0.0010152 0.0016434 -0.00031776 0.00088999 -0.00059741 0.00049112 0.0019337 0.001127 -0.0021679 0.00074026 0.0029642 0.0020001 0.00021991 0.00021881 -0.0019502 0.00087458 0.00062088 8.6888e-06 -0.0014632 5.0423e-05 -0.00066236 -0.00022498 -0.00028108 -0.00024161 0.0012343 0.0012168 0.0020465 -0.0015967 -0.00067357 0.00052131 0.0015672 -0.0013651 -0.00034097 0.0014985 0.00077415 -0.00035351 -0.00065432 -8.8846e-06 0.001347 0.0014333 0.0036082 -0.0018181 0.0010677 -0.0010079 0.00048125 0.00067541 -0.0014611 -0.0012149
H18-23-U	0.0010492 -9.6882e-05 -0.00060719 -0.00019973 0.00058876 -0.00048454 -0.0024116 0.00016969 0.0038616 0.00054521 -0.00095906 0.0019836 -0.00085284 0.0016351 -0.001432 0.00097199 0.0016541 -6.8575e-05 -0.00075715 -0.0020157 0.001593 0.00073935 -0.0025592 -0.00031192 -0.0013356 0.0019398 0.0014418 -0.0017911 -0.002144 0.0019712 0.00021592 -8.61e-05 -0.0011587 -0.0011503 -6.763e-05 -0.000659 0.00025964 -0.00038888 -0.00022762 0.00049446 0.001181 0.00089694 -0.00038001 -0.00029303 0.0007975 -0.0015344 0.0010928 -0.00068822 -0.00076745 -0.000395 -0.0027581 0.0016913 -0.0017357 -0.0012294 0.00019082 -0.0021467 -5.8211e-05 0.00093125 0.00077787 0.00037987 -0.0025573 0.00044361 0.0025086 0.0022308 -0.0011073 0.00075357 0.00018531 0.0011096 0.00063487 0.00022209 -0.00022623 0.0016702 0.00079972 -0.00054419 -0.00072514 -0.001501 0.0014381 0.0018622 0.0020652 -0.0014021 0.0012112 0.001429 0.00067055 -0.0015435 0.0014242 -0.0015275 0.00048974 0.0012375 -0.00027499 -0.0026138 0.002209 -0.0017181 0.0030264 -0.0012674 2.641e-06 -0.0019947 0.00033375 0.0010425 -0.00029665 0.001039
H18-1-2	0.00027089 0.0015393 -0.00082832 -0.00098279 0.0010121 0.00046441 -0.00010815 0.00059165 0.0016761 0.00054573 -0.0017772 0.0018148 0.0016938 -0.00038854 0.0011801 -0.0010655 0.0002775 -0.0029668 -0.00045524 -1.0765e-05 0.0020099 0.0017931 0.00037874 0.00086376 -0.0015291 -0.00075365 -0.00014551 0.00011615 -0.0010227 -0.00045591 -0.00029835 -0.00088953 -0.0010432 -0.0011618 -0.0028007 -0.0014404 -0.0011157 -0.00025271 0.00043518 0.0004278 0.00023519 0.0036103 -0.00082826 0.00080197 0.0027978 0.0013312 0.001153 -0.0010337 -0.00068235 0.0027658 -0.0028489 -0.00093589 0.00041281 -0.00012061 0.00038006 -0.00049528 -0.00025186 -0.0010423 0.00049821 -0.0018438 0.0018029 0.00084941 0.0027696 0.0025974 0.00045236 0.0024718 2.3961e-05 -0.00016737 -0.00013161 -0.00099094 0.0013435 0.0015942 0.001221 -0.00011178 -0.0023824 0.00082712 0.00042015 0.0022122 0.0019981 -0.0026562 0.0006276 -0.00046691 -0.00066954 0.00039039 0.00084353 -0.00065283 0.00017615 0.0013968 -0.0019141 9.1367e-05 -0.00066931 0.0010985 0.0011335 -0.00049018 0.00073455 -0.0012186 -0.0012607 0.00087572 -0.0018208 -0.000573
H18-32-5	5.6898e-05 0.0017548 -0.00063844 -0.0019865 0.0017045 0.00049579 -0.00048571 0.00071343 0.0015071 0.00056697 -0.0026945 -0.00068554 0.00082885 0.0015062 0.00013283 0.00022736 0.0003881 0.00028701 0.00032885 -0.0011582 0.0021676 0.0017911 -0.00028429 0.00025931 -0.00062615 -0.0010553 0.00047539 -0.0014383 -0.00052221 0.0015196 -0.0010196 -0.00022264 -0.0007035 -0.00065537 -0.0012609 -0.001089 0.00087876 -0.00059283 -0.00031421 -0.0014183 0.0022536 0.0018016 0.00090859 0.00044778 0.0011532 0.00016373 0.00039365 -0.0011694 0.00055117 0.0014044 -0.002042 0.0019996 -0.0010078 -6.2167e-06 -0.0019356 -0.00084322 -0.00038316 0.0013537 0.00068769 0.00061049 -0.0017751 0.0018128 0.0020516 0.0013181 -0.0010729 -0.00074027 -0.00016355 0.0004065 0.00052193 9.0589e-05 -0.0015735 8.0442e-05 0.00038159 1.3787e-05 -0.0010692 0.00056005 8.8517e-05 0.0025736 0.00059859 -0.00084189 -0.00034918 -0.00087337 0.00093424 -0.00043723 0.00085255 -0.00036161 -0.00091521 0.0012146 -0.0011052 -0.00047776 0.0012338 -0.00070945 0.0039587 -0.00163 -0.0013919 -0.0020687 -9.6433e-05 0.0010604 -0.00090678 -0.001733
H18-28-4	-0.00039352 0.0016678 -0.00026864 -0.00099309 0.0011104 0.0018629 0.0012278 0.0010216 0.0020566 0.0017501 -0.0012897 0.00051886 0.002451 0.00077397 -0.00070547 -0.00091622 0.00091466 0.00084459 -0.0001039 -0.0012524 -0.00080372 0.0013433 0.00032586 -0.00076863 -0.00089303 5.7062e-05 -0.00060305 -0.00051132 -0.0021088 0.0029342 -6.1599e-05 -0.00035551 -0.00058497 -0.0019112 -0.0025771 -0.00025324 -0.0010603 -0.0010958 -8.519e-05 -0.00028457 0.0011905 0.0020435 0.0024365 0.001425 0.00071876 -0.00082098 0.00055345 -0.000649 -0.0018398 0.0012597 -0.0031252 0.0024086 -0.0016192 0.00015428 0.00056247 4.0111e-05 0.00058203 0.0012663 0.0016635 0.00070015 -0.00064283 0.00022906 0.0023356 0.0013336 0.00052898 -0.00017683 -0.00099372 0.0016788 0.0011712 -2.383e-07 -0.0021676 -0.00063186 -0.0010727 -0.00042621 0.001062 -0.00099815 0.0014851 0.00082965 0.0021491 -0.00099062 -0.00025076 0.00115 0.0018551 -0.0023538 -0.00022675 -0.0018593 -0.00031041 0.0012629 -0.001414 -0.00062328 0.0015322 0.0020447 0.003803 -0.0030473 0.00049818 -0.0005927 0.00015648 0.0024387 -0.0017597 -0.00088854
H18-29-4	0.00056721 0.0007705 -0.0015698 -0.00085807 0.0023246 0.00074132 -0.0011149 0.00092043 0.00094042 -0.00022859 -0.002576 0.00055759 -9.7567e-05 0.0010766 -2.9907e-05 0.0014926 -0.0011058 -0.0013987 0.0022939 -3.7022e-05 0.00033131 0.0006481 0.00041069 -0.00046784 -0.00058912 7.9793e-05 0.002343 -0.00060251 -0.00095623 0.00043336 2.2096e-05 -0.000767 0.00040891 -0.00023094 -0.0012194 0.001124 -0.00036672 -0.0010061 -0.00016864 -8.6598e-05 0.0010593 0.0022967 0.0018833 0.0017167 0.0023961 -0.0017793 0.0021061 -0.00045968 -0.00046338 0.0023418 -0.0021782 6.216e-05 -0.001853 -0.00056201 0.00062268 -0.0014948 0.00018829 0.0011568 0.0013474 -0.00022988 -0.0012394 0.00031715 0.0027407 0.00070005 -0.00028704 -0.00036246 -0.00059972 0.00071086 -0.00065172 0.00093023 -0.0022826 0.0021456 0.00022398 -0.00011996 0.00036132 -0.0014575 0.0006805 0.0012617 0.0019984 -0.00010744 0.00063657 0.00048105 0.0012146 -0.0010674 0.0013815 -0.00021073 0.00108 0.000666 -0.0022576 -0.0002644 0.00066703 -0.0008061 0.0025541 -0.00015822 -0.0014139 -0.0012159 -0.0028807 -0.00034292 -0.00084441 -0.00099331
H18-29-5	-0.00012755 0.0017135 0.0010174 -0.0012153 0.0022354 0.000662 -0.0013772 0.00097653 0.00057508 0.00030078 -0.00021996 -0.00024783 -0.0017351 0.0010918 -0.00043752 0.0012025 0.0012768 0.0014253 -2.7269e-05 -0.001365 -0.00085483 0.001238 0.00051721 0.001027 -0.00069494 -0.00096781 -0.0015872 -0.00099147 -0.00043741 0.00082965 -0.00084361 -0.00020139 0.00051915 -0.0010622 -0.0021402 -0.00044483 -0.0006158 0.00039683 -0.0011083 -0.0002876 -0.0010844 0.002182 0.0010042 0.00077618 0.0018953 -0.001225 0.0026978 -0.00063398 -0.00099336 0.0012934 -0.0016091 0.00088077 -0.00097224 0.00044066 -0.0021643 -0.00071993 -0.0023146 0.00094434 0.00076666 0.00036479 -0.00021965 0.0010775 0.0029712 0.00099815 0.00031696 6.1816e-05 -0.00115 0.00023948 -0.00060172 -0.00082591 -0.001268 0.00049807 0.0010275 -0.0025443 6.0222e-05 -0.0021695 -1.7211e-06 0.00040383 0.0019796 4.4898e-05 -0.00061346 -0.00096422 0.0011136 -0.00096885 0.00035774 0.00036004 0.0010267 -0.0017505 -0.00056498 0.00059957 0.0010088 -0.00077091 0.0030886 -0.00084806 0.0022295 -0.00020773 -0.0015342 0.00057112 -0.0026948 -0.0028208
H18-2-2	0.0013423 -8.8201e-05 -4.5676e-05 -0.0014136 0.0026464 0.00070849 -0.0019281 -0.0011094 0.0021673 0.0023722 -0.00073138 -0.00066775 -6.294e-05 0.0017513 0.00012197 0.00082303 0.00010947 0.00037668 -0.0019032 -0.0023521 0.0029487 0.00090114 0.00099434 -7.9635e-05 -0.0008902 -0.0011947 0.0013088 -0.00054686 8.9314e-05 0.0021705 -0.00012176 -0.00055778 -0.001343 -0.00041862 -0.0032112 -0.00050101 0.00097124 0.00085605 0.00038783 -0.00095324 0.00074555 0.0023856 0.0013106 0.0010749 0.0007834 0.00033153 0.0021244 0.00026708 -0.0014433 0.00063691 -0.0029532 0.0016004 -0.0011575 -0.00061801 -0.00074141 -0.0010572 0.0017668 -0.00065937 0.001224 -0.00072253 -0.0013347 0.0015662 0.0009644 0.0017193 -0.00077126 -0.00026813 -0.0015079 0.0025578 0.00063692 -2.239e-05 -0.0023879 0.00092425 0.0009365 -0.00084135 0.0004479 -0.0013392 0.0011758 0.0022412 0.0025582 0.00044376 -0.00044582 0.0013259 0.0010254 -0.0019466 0.00033578 -0.0010827 0.0014522 0.00043563 -1.1705e-06 -0.0023939 0.0016326 -0.00042068 0.0045733 -0.0022754 -0.0012546 -0.0011247 -0.0011303 0.0019523 0.00021666 -0.00026106
H18-2-3	-0.00029318 0.00020659 -0.00021384 -0.0020172 -0.00070736 0.00053729 -0.00075175 -0.00057079 0.003044 9.0994e-05 -0.0017841 0.00052029 -0.0013164 0.00098901 0.0013606 -0.00041089 0.00058531 -0.00042595 -0.0022532 -3.1874e-05 0.0013739 -0.002368 -0.0026118 0.00090489 0.001061 0.00087883 0.0026485 0.00034774 -0.0013258 0.0031197 0.0012273 0.00087894 0.00014326 -0.0001478 8.7889e-05 0.0008084 -0.0021791 0.00090047 0.0026601 0.003249 -0.00082183 -0.0012251 0.0013238 -0.0008244 0.0013136 -0.0023679 0.0029543 0.00099555 0.00026968 -0.00060823 -0.00053323 0.0006059 0.00059975 0.00030171 -0.00096687 -6.5696e-05 0.00065618 0.0010612 0.0006135 -0.00093548 0.00045281 0.0022071 -4.7893e-05 0.0011065 -0.0012511 0.0016332 -0.00073543 -0.00038398 -0.0015629 0.00011879 0.00011715 0.0010061 -0.0010715 0.00045017 0.00077684 0.0010999 -0.00051136 -0.0022314 0.00089807 -0.0022998 -0.00053387 0.0012488 -7.5122e-05 0.00068862 0.001047 -0.001804 4.997e-05 0.0019236 0.00068199 -0.0008824 -0.00087027 -0.0010672 0.0024683 0.00027315 -0.00019847 -0.00027489 -0.001791 -0.00085649 -0.0011633 4.9979e-05
H18-2-1	0.0018312 0.00021171 -0.00059805 -0.00036409 0.0019287 0.00013549 0.00073941 -0.0012433 0.00082491 0.00054993 -0.00061866 0.00058639 -0.0016303 0.00046141 -0.00058537 -0.0001596 0.00012306 -0.0014952 0.0010816 0.0012521 0.00086372 0.0028695 -0.0011976 -0.00087156 -0.0019996 0.00044091 0.00013064 -0.0011196 -0.00089336 0.0023459 8.0387e-05 0.00081825 -0.0020007 -0.0014131 -0.0010359 0.00070946 0.00069904 0.0010327 -0.00032781 -0.00018045 -0.00019561 0.00010598 -0.00079243 0.0020934 0.00059867 -0.00072672 0.00011963 -0.0013334 -0.00016037 0.00019708 -0.0024334 0.00078168 -0.0006249 -0.00027332 0.00034185 -0.0012266 -3.3785e-06 0.00089503 0.00090969 0.00080662 -0.0007935 0.0014669 0.0015231 0.0013445 0.00085775 -0.000343 -0.00081839 0.00060265 -0.00013171 0.00095368 -0.0024472 -0.0007816 0.0005356 0.0015071 -0.00069022 -0.00084188 -0.00028881 0.0024752 0.0039739 -0.00056886 -0.00044356 0.00095919 0.0025253 -0.00095709 0.0011168 -0.00069372 0.00065471 0.0011917 -8.5129e-05 -0.0025382 -0.00088901 -0.001163 0.0033266 -0.00010003 -0.00035985 0.00072612 -0.0011217 -2.1592e-05 -0.0013271 -0.0002809
H18-2-4	0.00033075 0.0021948 -0.00027185 -0.00097462 0.0019883 0.000243 -0.0017733 -0.0012526 0.0022941 0.0010196 -0.00083394 0.0013581 -0.00050723 0.0012677 -0.0011254 -0.00042602 0.00040195 0.00037144 0.00041552 -0.00036004 0.00097782 0.0018294 -0.00088921 -0.0011756 -0.00062884 -0.00089241 0.0020839 -0.0011559 -0.0014267 0.0011314 -0.00013028 0.00023104 -0.0027529 -0.00044023 -0.0022676 -0.00012882 -0.00086843 0.00091981 0.00011867 -0.00022149 0.00027097 0.001171 -2.3621e-05 -0.00030198 -0.00021517 -2.7651e-05 0.0013678 -0.0014236 -0.00086714 0.0019752 -0.0018443 -2.9893e-05 4.2758e-05 -0.00013884 -0.00070135 -0.00027456 -0.00098556 0.0003157 0.00048837 0.00057248 -0.00061423 0.0018563 -3.4766e-05 0.0010836 -0.0017519 0.0011852 -0.0014486 -0.00013087 0.00027662 0.00021441 -0.00086435 -0.00027477 -0.00040572 0.00096458 -0.00128 -0.00023293 0.0010424 0.00057163 0.0020201 -0.0021647 -0.0018563 0.00035308 0.0019327 0.00020868 0.0015954 -0.0019459 -0.00064759 0.002085 -0.0019424 -0.0023784 0.0006029 -0.0013483 0.0025425 -0.0015749 0.00047823 -0.0012735 0.00061268 0.0025434 -0.0015748 -0.00066779
H18-2-5	-0.0008549 0.0018477 -0.0022526 -0.0016547 0.0010982 0.0018723 1.3221e-05 0.0014567 0.0005912 0.0016854 -0.0020075 -0.00081375 8.8539e-06 0.0016554 0.00014848 -0.00091235 0.00054572 0.0021229 -0.0013825 -1.3296e-05 1.9094e-05 0.0023676 -0.00010885 -0.0012397 -0.00095487 -0.0012612 0.00057053 -8.0855e-05 -0.0027296 0.00083674 3.8568e-05 0.00037456 -0.0004732 -0.0028856 -0.00039243 0.0017565 0.000503 -0.0014383 0.00049586 -0.00057978 0.00067284 0.0018214 -0.00026444 1.5052e-05 0.0017189 -0.00050848 0.0011465 -0.0011688 -0.0010089 0.00033564 -0.0027994 -4.6798e-05 -0.0010161 0.0017369 -0.00015387 -0.00051748 0.00031135 0.001155 0.0021923 1.1749e-05 -0.00063415 0.00047895 0.00074734 -0.00011251 0.00092535 -0.00012037 -0.0027465 -0.00062741 -0.00020142 0.00074015 -0.00058098 -0.00011696 0.00033741 -0.00073426 -0.0019961 -0.00025436 0.0013525 0.0014198 0.0010591 -0.00032858 -0.00071322 -0.00046685 0.0010449 0.00021438 0.0018123 -0.0022218 0.0004468 -0.00023935 -0.001755 -0.0013935 0.0012234 0.00057695 0.0024172 -0.0011424 -0.00031613 -0.00040179 0.00034017 -0.00039063 -0.0027003 -0.0016913
H18-15-1	0.00052895 0.0020175 -0.00088295 -0.0019736 0.0017543 0.00096562 0.00066928 -0.0023252 0.00091864 0.00081216 2.0435e-05 0.00066914 0.0014622 0.0012874 -0.0017672 0.0003341 0.00041028 0.0023947 2.3856e-06 0.00011481 -0.0017627 0.0015198 0.00058682 -0.00037692 -0.00041209 0.00013877 0.0014915 -7.1919e-05 -0.0012748 0.0017582 -0.0015106 -0.001519 -0.00077992 -0.0018554 -0.00070354 0.0017028 -0.00031876 -0.00069529 -0.0007661 -0.0022678 0.00030982 0.00025546 -0.0021271 0.0012644 0.00033724 -0.00096939 0.00053214 0.00063363 -0.0012559 -0.00019655 -0.0014366 0.00066089 -0.0015594 0.0022571 -0.0013557 -0.0012854 -0.0015422 0.0015493 0.0046867 0.00060956 -0.0028776 0.0022114 0.00084288 -0.00044755 0.00096926 0.0011728 0.00083907 0.0014036 0.00051271 0.0007821 -0.00074847 0.00048641 0.00016699 -0.00030911 -0.0013398 -6.6232e-05 0.0020182 0.0022566 0.0011696 -0.00031488 -0.0015294 0.00097018 0.00043958 -0.00093567 -0.00083708 -6.2687e-05 0.00071801 -0.0010643 0.00021142 -4.7852e-06 0.0015095 -0.0013827 0.0036101 -0.0010687 -0.00027173 -0.0016126 -0.00015842 0.00063468 -0.000686 0.0015377
H18-1-3	0.0018215 0.0017128 -0.0013056 -0.00092152 -0.00022294 0.00097827 -0.0007278 -0.0019451 0.0022514 0.0019882 0.00024646 0.0013532 -0.0012883 -0.00058552 0.0022894 -0.0013077 -0.0018123 -0.00087979 0.00036694 -0.00066856 -0.00036297 0.0037926 -0.0011158 0.0016915 -0.0018593 0.001369 0.00010783 -0.00024458 -0.0022382 0.00065646 -0.00029764 0.0025765 -0.00039889 -0.0022187 -0.00031424 3.4724e-06 -0.0017284 -0.00018617 -0.0012855 0.00092614 -8.2346e-05 0.00071757 0.0014028 0.00048097 0.00060409 0.00075702 0.0019883 -0.00061444 0.0016072 0.00073753 -0.0029854 0.0010514 0.00017076 -0.0017398 0.0010983 -0.00087169 -0.0010525 -0.00152 0.0013338 -0.0015893 0.00061508 0.0011698 0.0014548 0.00048009 0.00062414 0.00042545 0.00011072 4.1533e-05 -0.00013885 -0.00052487 0.0002764 0.0024172 0.0010127 0.0028451 0.0002365 0.00017188 0.00077318 0.00049214 0.00049184 -0.0016839 -0.00072155 0.00066261 0.0021694 0.001635 0.0029675 -0.0011547 0.00090034 -9.4036e-05 -0.0015556 -0.0023319 -0.00031969 0.0013571 0.0013056 0.0020319 0.0002467 -0.00092837 -0.00076823 0.0021761 -3.8362e-05 -0.0016953
H18-15-2	0.00012742 0.0009591 -0.00098636 0.00027547 0.0021582 0.0015924 0.0005142 -0.00013676 0.0025686 0.0017463 -0.00060796 -0.00053236 0.00042417 0.00013528 -0.0015389 0.00025207 0.0010658 0.001169 0.00052728 -0.0010679 -0.0011128 0.0026412 0.0012164 -0.00095676 -0.00092287 -0.00082502 0.00076859 -0.00038938 -0.00088468 0.00098177 -0.0010172 0.00068998 -0.0020396 -0.0013911 -0.0020457 -0.00056681 -0.00081198 -0.00034386 -0.00012682 -0.00015487 0.0021892 0.0020567 0.0015013 0.0021129 0.0014175 0.0014786 0.00069972 8.8201e-05 -0.0001141 0.00020015 -0.002791 0.0033915 -0.0015624 0.001324 -0.00069255 -0.0012001 -2.7805e-05 0.0013552 0.0014109 0.002003 -0.00061323 0.00091569 0.0024385 0.0018082 4.94e-05 -4.7389e-05 -0.0012734 0.0014222 0.0011925 0.00058399 -0.0023147 0.0012493 -0.00063593 -0.00018548 0.00034575 0.00069832 0.00091187 0.0022016 0.0014622 -0.0010739 0.00094692 0.0017752 0.0014537 -0.00063323 0.0011754 -0.00095824 -0.0007533 0.00055953 0.0008187 -0.0009158 0.001399 0.0023462 0.0044779 -0.0012054 0.00030529 -0.00047353 0.00066412 0.0010164 -0.0013206 -0.0011395
H18-15-5	-0.0014312 0.00095538 -0.0015187 -0.00083944 0.00090628 0.00087924 6.5786e-05 0.00030935 0.0017183 0.00096587 -0.0010706 0.00035855 0.00087527 0.0015229 -0.0011832 -0.0010484 0.00019667 -0.00047612 9.3068e-05 -0.00043559 -0.0010136 0.0012492 0.0013187 -0.00057687 -7.8999e-05 -0.00076024 0.00081888 -0.00090732 0.00010887 0.0013196 -0.00036155 -0.0016581 -0.0027348 -0.00078857 -0.0015138 0.0010144 -0.0011249 -0.00012254 0.00020439 -0.00099763 0.00021646 0.0015286 0.00064836 0.00065385 9.7657e-05 -0.00066998 0.00084952 0.00018385 -0.00045817 0.0014544 -0.002466 0.0018337 -0.00068552 0.0013108 0.00030916 -0.0014101 0.00086864 0.0021111 0.0011056 0.00073039 -0.0024653 0.00045162 0.00073603 0.0013819 -0.00032101 0.00031723 -0.001032 0.0009064 0.0011732 0.00045857 -0.0016113 -0.00042662 0.00014248 0.0004144 0.00111 0.0022882 0.00021092 0.0016755 0.0011936 -0.0019055 -0.0015015 4.6299e-05 0.0021908 -0.000238 0.00072912 -0.00067818 -0.00033147 0.00099554 -0.00077477 0.00013635 0.002373 -0.00036363 0.0029954 -0.00068457 0.00036799 -0.00023159 -0.00051464 0.0013249 -0.0010629 -0.0013687
H18-15-4	-0.00028283 0.0019801 -0.00031337 -0.0007787 0.0028369 0.0013294 0.00047321 -0.00031952 0.0026729 0.0019709 -0.0014292 0.00017272 0.0016176 0.00078058 -0.00097645 0.00038226 0.0021963 0.0014691 -0.00031275 -0.00060227 -0.00015338 0.0013827 -0.00016848 -0.0020292 0.00041124 -0.0010508 0.00060758 -0.00080382 -0.0010559 0.0029126 -0.0014046 -0.0010518 -0.0040036 -0.001567 -0.0025443 -0.00052403 0.00079818 0.00010209 -0.00014029 -0.000378 0.0011867 0.0018546 0.0022948 0.00083893 0.00089659 -0.00092453 -0.00034782 0.00067389 -0.0013254 0.00085167 -0.0027692 0.002709 -0.00051497 0.0013642 -0.00015742 -0.00067066 4.7062e-05 2.775e-06 0.00035215 0.0022516 -0.00095826 0.0017573 0.0021469 0.00063967 0.00028805 -0.00078606 -0.0014182 0.00072623 0.0010212 0.00023467 -0.0012819 -7.3809e-05 -0.00015875 -0.00042663 0.00065119 0.00062781 0.0017621 0.0011896 0.00082356 -0.0018848 -0.00059823 0.0015479 0.0012213 -0.001697 0.00034308 -0.0027456 0.00044575 -0.00013422 -9.1878e-05 0.00041593 0.00084632 0.0014549 0.003869 -0.00058983 0.0020808 -0.000645 0.001559 0.0024597 -0.0014699 -0.0014383
H18-26-1	0.0013285 -0.00025325 0.0013628 -0.0012384 -3.8413e-06 0.00083857 -0.0032575 -0.00051533 0.0013521 0.00068171 0.00026701 0.00021944 -0.0023962 0.0015709 -0.00095137 0.001842 0.001301 -0.00053108 -0.00024705 -0.00083006 0.0013316 0.00080256 -0.0016125 -0.0009318 -0.0016439 -0.00019117 0.0027289 -0.0013751 -0.00019871 0.00060371 0.0019096 0.00026754 -0.00016719 0.00076768 0.0012087 0.00050521 0.00027939 -0.0013406 0.00035486 -0.00061337 0.0012604 0.0007986 -0.0016042 -0.0012882 0.0016059 0.00047633 0.0031756 0.000996 3.181e-05 -0.00010292 -0.0017849 0.00091671 -0.00068578 -0.0012992 -0.00065507 -0.001575 -0.0010227 0.0016042 8.3145e-05 -0.00020161 -0.0026257 -1.337e-05 0.0011741 0.0014332 -0.0006166 0.0007682 -0.00088646 0.00046056 -6.6863e-05 -0.00035188 -0.0014886 0.0010843 9.9763e-05 0.00090451 -0.0012523 -0.00022366 -0.001376 0.00040439 0.0019709 0.00081763 0.0013162 0.001115 -0.00074565 -1.1212e-05 0.0029608 -0.00037012 0.00042445 0.00038816 -0.00073399 -0.0019211 0.00080236 -0.0023033 0.00046565 0.0012527 -0.00021022 -8.1321e-05 -0.00074272 -0.0018446 -0.0003647 -0.00094253
H18-3-4	0.00050056 0.0011128 -0.00084924 -0.00021698 0.00068367 0.0013627 0.00032335 0.00065587 0.0016266 0.0026923 -0.0013058 -0.0001053 -0.00013349 0.0023062 0.00011565 -0.00064562 0.0008925 0.0018092 -0.0015278 0.00050803 -0.00068912 0.00051609 0.00081626 -0.00029118 0.0012743 -0.0011369 0.0011256 -0.0015689 -0.0015527 0.0025036 -0.00080949 -1.8075e-05 -0.001598 -0.00089982 -0.0021369 -0.0003411 0.00079783 -0.00091935 -7.236e-05 -0.00055395 0.00025445 0.0014293 0.00081928 0.0003088 0.0019368 -0.00018007 -0.00066129 -0.0002183 -0.0019018 0.0016239 -0.0002699 0.0012377 0.00054539 0.0013138 0.00032393 0.00052476 -0.00085554 -0.00019465 0.001347 0.0011368 -0.00031252 0.0026319 0.0015121 0.0023854 -0.0003781 -0.00111 -0.0018637 0.00094098 -0.0004671 0.0010335 -0.00096613 0.00057504 0.00050859 -0.00012942 -0.00071905 -0.00050125 0.0022595 0.0015926 0.0016345 -0.002313 -0.00064063 7.5206e-05 0.001439 -0.0024521 -0.0005418 -0.00014563 0.0013316 0.00050591 -0.00038363 -0.0023914 0.0017964 -0.00014584 0.0040588 -0.0023001 0.00026782 -0.00088841 0.00045486 0.0013216 -0.00098429 0.00016874
H18-3-2	0.00051161 3.0003e-05 -0.00029334 -0.00043228 6.1848e-05 0.0020816 0.0005838 3.8747e-05 0.0005 0.0027856 -0.00027128 0.001531 9.0626e-05 0.00087224 0.001904 -0.0022608 0.00039376 0.0003977 -0.0012846 -0.00094807 -0.0012925 0.0014526 0.00022942 -1.5657e-05 0.001405 -0.00034884 0.0011397 -6.4982e-05 0.00072062 0.0024508 -0.00021826 0.00050243 -0.00071922 -0.0023265 -0.0016881 0.00074373 0.00092709 -0.0017333 5.82e-05 -0.00085895 0.00073137 0.00082444 0.0019012 -0.00089877 0.0019361 -0.0013907 0.00038594 -0.0002275 -0.0016572 0.0010835 3.5615e-05 0.0021175 -0.0009487 0.00054089 -0.00049355 0.00072275 -6.884e-05 -0.00015217 0.0012629 0.0020292 -0.00068222 0.00066273 0.00085223 0.0020399 -0.0001352 0.00017695 -0.0012756 0.00052934 -0.00098686 0.00062331 -0.0012328 -0.00023799 -0.0007416 0.00079326 -0.00034091 -0.00089837 0.0011775 0.00047048 0.00078788 -0.0014485 -0.00013766 0.00092657 0.00069234 -0.00045473 0.00032436 -9.5954e-05 0.0021319 7.47e-05 -0.0021149 1.2183e-05 0.0021554 -0.0010427 0.0021503 -0.00067898 0.0010758 0.00049859 -0.0008731 0.0016317 -0.0015719 -0.0012595
H18-25-E	0.0011581 -0.00084806 0.00077163 -0.00035085 0.0011935 0.00023742 -0.0019529 0.00058058 -0.00022678 0.00021241 -0.0017391 -0.00028679 -0.0022291 0.00034804 -0.0022426 -0.00018584 -7.4035e-05 0.00037101 -0.0010195 0.001064 0.00035896 0.0013229 -0.0014819 -0.00017623 -0.0014151 -0.0014671 0.0028321 -0.00092912 0.00026314 -0.00015889 -0.00017023 0.00072993 -8.6855e-05 -0.00062494 -0.0017039 0.0009994 0.001202 -4.028e-05 0.00031664 0.00057535 -0.00047137 0.0012422 -0.00047649 -0.00057405 0.0022865 -0.00095328 0.0023303 5.8255e-06 -0.00043852 0.0003714 -0.00079279 0.00015603 -6.6862e-05 0.00045351 -0.00039912 -0.00089713 -0.0012778 0.00040903 0.0012193 -0.00023802 -0.00015026 0.0019228 0.0011554 0.0014594 0.00052988 -0.00065405 -0.0001987 0.0010965 -0.00053674 0.0005042 1.9327e-07 0.001769 0.00075547 -0.00015163 -0.0002452 -0.00044766 -0.00026671 0.0020791 0.0017347 -0.00031984 0.00118 0.00084396 0.0013608 -0.0011972 0.0016203 0.00056218 0.00076443 -0.00039962 -0.0010191 -0.00014899 0.00014956 0.00011208 0.0025423 -0.0018456 -0.00038176 -0.001562 -0.0013797 -0.00035039 -0.00064202 -0.0017239
H18-23-I	0.0013441 -0.00086089 -0.00085299 -0.00074378 0.0012352 -0.0023009 -0.00238 3.4451e-05 0.0034844 3.4161e-05 -0.0027395 0.0016018 -0.00079682 0.00080251 -0.0012039 0.0014191 0.0024952 0.00030004 -0.001144 -0.0022415 0.0010081 0.00035864 -0.0033544 -0.00097238 -0.0011566 0.0016909 0.00191 -0.00324 -0.0015679 0.0031562 -0.00065218 -3.096e-05 -0.00045844 -0.0015564 -0.0025193 -0.00085069 0.0010416 0.00020333 0.0010294 0.00054696 0.0013513 -2.391e-05 -0.00051304 0.00090146 0.0013042 -0.0015329 0.0013596 -0.00063855 -0.001906 -0.00035504 -0.0027594 0.00045669 -0.0018914 -0.0014927 0.00058525 -0.00094339 -0.00027542 0.0014936 0.00034481 0.00026601 -0.0021019 0.0013077 0.002704 0.0018934 -0.0010308 0.0015876 -0.00012657 0.002255 0.00030667 0.00033897 -0.00086825 0.0014142 0.00093688 -0.00054294 -0.0010518 -0.0020895 0.0017449 0.0013396 0.0019539 -3.9512e-05 0.00097861 -0.0002467 -0.00046503 -0.0033128 0.0018753 -0.0017083 0.000245 0.00041002 0.0002208 -0.0019216 0.0016473 -0.0024929 0.0036727 -0.00072621 -0.00035637 -0.0023245 2.6046e-05 0.0010956 -0.001518 0.00055115
H18-21-2	0.001701 0.0010298 0.00035216 -0.00023429 -0.00031816 0.0023234 -0.003203 0.00087099 0.0032404 5.9031e-05 -5.9053e-05 0.0016478 -0.0015236 0.0002081 -0.002435 0.0007099 0.0013227 0.00059819 0.00045326 -0.0016318 -0.00037719 0.0020937 -0.0021956 0.00096192 -0.0013081 0.0007739 0.00012929 -0.00099859 -0.001221 0.002478 -0.00038277 -0.00030289 -9.6372e-05 -0.0011863 -0.0015924 -9.651e-05 -0.00013549 -0.0013423 -0.00077867 -0.0018475 -0.00040856 0.0021872 -0.00084643 4.1128e-06 0.0015948 -0.0027992 0.0018483 -0.0019397 -0.00083649 0.0010365 -0.0012393 0.0002176 -0.0017032 -0.00040342 0.0010087 -0.0026101 0.00030711 0.00049077 0.001296 0.00082718 -0.0032721 0.00027927 0.0018141 0.0022035 -0.0017654 0.0006152 -4.1941e-05 0.00098358 0.00030254 -0.00040814 -0.0012919 0.0005694 0.00044785 -0.0011962 -0.00057032 0.00015871 0.0024122 0.00023989 -0.00058616 -0.00034287 0.00095176 0.00025451 0.00055515 -0.0016144 0.0015815 0.00081715 -0.00032631 0.0004194 0.0016348 -0.0014241 0.0008964 -0.0021235 0.0014848 -0.00019683 0.00038562 -0.00079723 -0.00024609 0.00093608 -0.0013436 0.00056623
H18-21-3	0.00072266 0.0016551 0.00072852 -0.00094652 -0.00035188 0.0015321 -0.0015861 4.4995e-05 9.2513e-06 0.00089489 -0.0014714 0.0003205 -0.00052118 0.0010731 -0.001161 -0.00048682 -0.0007189 -0.0012047 0.00061025 5.6777e-06 0.00070731 0.0025103 0.0013944 -3.447e-06 -0.00041088 0.00061468 0.0019278 1.3104e-05 -0.00057874 0.0012327 -0.00026123 0.00039148 -0.0013366 -0.0012087 -0.0016061 0.0008932 -0.00093787 -0.00032501 -0.00049861 -0.00010126 -0.0015398 -1.5259e-05 0.00057984 0.0010679 0.00023468 -0.0014901 0.0016877 0.0014791 -0.00033307 0.0024169 -0.002068 0.0010405 -0.0011748 0.0012823 0.00075482 8.9602e-05 0.00081761 1.3331e-05 0.0017511 0.00087933 -0.0020125 0.0013471 0.0020556 0.00011173 -2.4095e-05 0.0006677 -0.00058255 -0.00026151 -0.0015523 0.00022354 -0.00041601 0.001088 -0.00057385 -7.0344e-05 -0.0014524 0.000913 0.00091982 -0.00066778 0.0016527 -0.0015003 -0.001105 0.0018224 0.0016621 -0.0008012 0.0023092 -0.0014795 0.00059946 0.0012742 0.00011841 0.00070091 0.00020572 0.00031631 0.0020383 0.00049327 0.00017076 -0.0010126 -0.00017114 0.00063511 -0.001464 7.9528e-05
H19-30-3	-0.00061927 0.0022418 -0.00097043 -0.0012153 0.00072934 0.00045867 -0.001723 -0.00025679 0.0023704 0.0014139 -0.001386 -0.00024553 -0.0013778 0.0013915 -0.00060292 -0.00054302 0.0012777 0.00010581 -0.0012753 -0.00074388 0.0018148 0.0016981 -0.00090892 -0.00072647 -0.0010459 -0.00022976 0.0015546 -0.0010862 -0.0024029 0.0021208 0.00011735 0.00089986 -0.00083147 -0.00027008 -0.0032654 -0.00020878 -0.00096147 0.00078395 -0.00043141 -0.00058551 0.00042932 0.0010184 0.00072485 -0.00063187 0.00066185 -0.00053152 0.0019894 -0.0003534 0.0015208 -3.1209e-05 -0.002089 0.00050715 -0.00078438 0.00045427 -0.00039081 -0.00015533 0.00024755 0.00046345 0.00087719 0.00061237 -0.00038388 0.0010102 0.001085 0.0011718 -0.0019723 0.0016835 -0.00020566 -0.0012802 -0.00043866 0.00033974 0.00041801 0.0002475 5.2765e-05 -0.00059544 -0.0010993 0.0011375 0.0011481 0.00033789 0.0021332 -0.0022912 -0.0012099 -0.00036268 7.1925e-05 -0.00045653 0.0025784 -0.0030005 -0.00019579 0.0032543 0.00057169 -0.0015653 0.00049279 -0.00019876 0.0012718 -0.00024309 4.8483e-05 -0.0019461 0.00074161 0.00088386 -0.001669 -0.00025012
H19-6-O	-0.00056369 0.0016235 -0.00093567 -0.0036589 0.00089743 0.00058757 -0.00076232 -0.0011293 0.0015615 0.002103 0.00063196 0.00070117 -0.00043774 -0.00029651 -0.00056693 -0.00011752 0.0004438 0.0024353 -0.0025597 -0.0013931 0.00065479 0.0020839 -3.5432e-06 -0.0013484 -0.0007159 0.00033143 -0.001223 3.7982e-05 -0.0029478 -0.00046044 -0.0014827 0.00058721 -0.0023804 -0.0021123 -0.0010605 -0.00089712 -0.00056931 0.0001007 -0.00014076 -0.0013855 -6.8625e-05 0.0017458 0.00028513 -0.00054592 0.0019329 0.00055087 0.0020198 -0.00016721 -0.00056807 0.0031072 -0.001842 0.0011808 -0.0013705 0.0019841 -0.0012378 0.00039944 0.00040144 0.00059801 0.0021791 0.001417 -0.00028675 0.0003791 0.0012699 0.0003464 -0.00015631 -0.00092102 -0.0022982 0.00118 -0.00067413 0.00019036 -0.00089934 0.00072612 0.00085072 -0.0011826 0.00061591 -0.00069241 0.0021113 0.00044412 0.0015341 0.00039772 0.00034734 0.0032574 0.0017591 -0.00080381 -0.00093248 -0.0018421 0.00033085 0.00062105 -0.00097273 -0.00018764 -0.00028529 -0.00073765 0.0040452 -0.0020922 -0.00058973 -0.0019424 0.00026784 0.0016089 -0.00097936 0.00020119
H19-11-3	0.00046268 0.00045801 -0.00068128 -0.00029248 0.0020937 0.0015398 -0.00023488 -0.00096813 0.00060197 0.0013485 -0.00027556 0.0020184 -0.0021834 0.0018804 -0.00056799 -0.00074778 8.0425e-05 0.00066576 0.00016224 -0.00040204 0.0016754 0.00095966 1.0031e-06 -0.00043458 -7.3392e-06 -0.00014816 0.0027719 -0.00032415 0.0017732 0.00049623 0.00051943 0.0003944 -0.00036299 7.302e-05 -0.00043665 0.0016636 0.00020647 -0.0012146 -0.00028425 0.0013604 0.0010457 0.001789 0.00064103 -0.00033702 0.0014163 -0.00082781 0.0011233 -8.7885e-05 0.00057888 0.000836 -0.0023596 0.0016914 -0.0007193 6.4819e-05 -0.00083337 0.00034773 -0.00085111 -0.00034746 0.00017997 0.0018956 -0.0022132 0.0016367 -0.0001591 0.0011482 0.00015051 0.00021252 -0.0011951 0.00043128 -0.00081039 -0.00064969 -0.001181 0.00020391 6.249e-05 0.00018813 -0.00092328 0.0011535 0.00033761 0.00052148 0.00106 0.00014919 -0.00012744 0.001728 0.0015173 0.0012602 0.00099849 -0.0010099 0.00050862 0.0012511 -0.0022285 -0.00023187 0.0015942 -0.00097567 0.00057151 -0.0016067 -0.0018708 -0.00020434 1.9576e-07 4.7323e-05 0.00021653 6.9786e-05
H19-20-I	-0.0010888 0.0013181 -0.00019375 -0.0034275 0.00088006 0.0022969 -0.001521 -0.001002 0.0015238 0.0013779 -0.0021098 0.00040627 -0.00068398 0.00064265 -0.002088 -3.0045e-05 -0.00012268 0.00040372 -0.0011175 0.00028909 0.0011035 0.0029103 0.0029371 0.00096259 -0.0018659 -0.00072219 0.00054807 1.5872e-05 -0.00075623 0.00070483 -0.0023239 -3.1502e-05 -0.0025826 -0.00080291 -0.0023135 0.0018725 0.00071714 -0.0028077 -0.00050734 -0.00056815 -0.0010575 0.0016596 -0.00067984 -0.00058979 0.00023458 -0.0011672 0.0035374 0.00027557 0.00040968 0.0029333 -0.0027211 -0.0012531 0.00019072 -0.00019411 0.00017964 -0.00106 -0.00033228 0.0011854 0.0003669 0.00057193 -0.00025262 0.0028427 0.0022557 0.00042979 -0.001396 0.0012222 -0.00399 0.0004821 0.00082348 -9.1715e-05 0.00018894 0.0010354 0.0011412 -0.00012254 -0.0015347 0.00059756 0.0014189 0.0021649 0.002493 -0.00044323 0.00029288 0.0017491 0.0025507 -0.00021027 0.0042435 0.00043559 0.00047771 -0.00082136 -0.0008283 -7.5582e-05 0.00090194 0.00051023 0.0033271 -0.0026509 0.00010194 -0.0017867 -0.00019127 0.0025119 -0.00022026 -0.0024208
H19-8-A	0.00063921 0.002479 0.0011285 -0.0009641 0.00012253 0.00083767 -0.0014953 0.00023086 -0.00031731 0.00099709 -0.00076871 -3.1054e-05 -0.00065865 0.00023582 -0.00019495 -0.00035764 0.00098056 7.2652e-05 -0.0010142 0.00057852 0.001296 0.00042809 -0.00034489 0.00030242 -0.00066752 -0.00050838 -0.00094194 -0.00065056 -0.00077517 0.0019271 -0.00073992 2.4849e-05 -0.00058102 -0.00044401 -0.00060965 -0.00082801 -0.00067152 -0.0002423 -0.00018676 -0.0016704 -0.0012892 0.0029689 -0.002135 -0.0001584 0.0021398 6.3867e-05 0.0030535 -0.00045991 0.0006012 0.0003013 -0.0022965 -0.00013065 0.00046371 9.8268e-07 -0.00045162 -0.00063858 -0.0013197 0.00073593 0.00013691 0.00030662 0.001043 0.0021229 0.00074907 0.0020953 -0.00017251 0.00092013 -0.001255 -0.00038039 -0.0010829 0.0004372 -0.00086827 0.0011862 0.00076294 -0.00024016 -0.0016844 0.0014519 0.0012515 0.0012129 0.0013958 9.267e-06 -0.00047673 -0.00079058 0.002678 0.0016215 0.0013827 0.00037646 0.0018389 -0.00078578 -0.00098012 -0.00027842 0.00040345 -0.00093036 0.0020475 -0.0005421 0.0014577 0.00076741 -0.0009103 -6.5018e-05 -0.00066668 -0.0026349
H19-6-I	0.002744 0.0016169 0.00062841 -0.001573 1.0025e-05 0.00021251 -0.0027718 -0.0019956 -0.00022897 8.4831e-05 0.0002246 0.0018335 -0.0013397 -0.0024218 0.00072746 -0.00016752 0.00079428 0.00062419 0.00056048 0.00070775 0.0020676 0.0010692 -0.00086595 0.000971 0.00039296 -0.0006549 0.00013587 -0.0017707 -0.0013383 -0.0010442 -0.00057389 -4.4295e-05 -0.0005774 -0.00097932 -0.0035979 -0.001834 -0.0014235 0.0012383 -0.00092261 0.00051977 -0.0027957 0.0013493 6.1497e-05 -0.00049476 0.00082817 -0.00096814 0.0028443 -0.0011644 0.0011309 0.0024844 -0.0026164 0.0013158 -0.00025227 1.0307e-05 0.00047146 -0.0019629 -0.00089724 -0.0003452 0.00042771 -0.00080148 0.00090496 -0.00050727 0.0013347 0.00016345 -0.00012472 -0.00042475 -0.0018902 0.00014215 -0.00094402 -0.0015097 -0.00084748 0.00028556 0.0001149 -0.0016977 -0.00027241 -0.00051326 -0.00018671 -0.0020621 0.0011039 0.0019782 0.0010259 0.0016301 0.0016989 -0.0018027 -0.00051457 -0.0036461 -0.00159 7.4906e-05 0.0014951 -0.00074498 -0.0014558 -0.0016898 0.0010223 -0.00080101 0.00065969 -0.00077044 0.00078453 0.00079828 -0.0020445 0.00042961
H19-11-5	0.00075548 0.0023593 0.0010249 -0.00013049 -0.0012921 0.0014122 0.00017515 0.00021899 0.00091178 0.0016726 -0.0011513 0.0022279 -0.0035422 -0.0002028 0.0010336 -0.00046439 -0.00066541 -0.00014436 -0.0012697 -0.0003922 -0.00031357 0.0017961 -0.0016467 0.00042496 -0.001 0.00090288 0.0017624 -0.00047936 -0.00056767 0.0012288 0.0018954 -0.00068862 -0.00041181 0.00077061 0.00027962 0.0015025 0.0001196 -0.0012788 0.00073406 -0.00085601 -2.1897e-06 0.00047077 -0.0011296 -5.5393e-05 0.0019518 3.8167e-05 0.0022544 -0.0023067 0.0010777 -0.00064029 -0.0018352 0.00076315 -0.00067598 -0.00070625 -0.00061816 -0.0013607 -0.0025812 0.0026133 0.00089424 0.002137 -0.0011901 0.0010503 -0.00020741 0.0011896 -0.00012528 -1.4551e-05 -0.0022396 -0.0010704 -0.001493 -0.00081518 -0.0001454 0.001391 0.00041377 0.00016647 -0.0022041 0.00039178 0.0020385 0.0015392 0.0031303 -0.00022145 -0.00021145 7.4839e-05 0.0011001 0.0036438 0.0021094 -0.00083432 0.0011887 1.7192e-05 -0.0015255 2.3815e-05 0.0013594 -0.00028295 0.0023025 -0.00078786 -0.00070278 -0.00023086 -0.0011322 0.00046243 -0.00041379 -0.0019844
H19-12-1	0.00061188 0.00085736 -0.00044989 -0.0022119 0.0014481 0.00078695 -0.0015325 0.0013286 0.0020477 0.002356 -0.00042513 -7.3649e-05 -0.00021492 0.00060578 -0.0017986 -0.00045245 -0.00083822 0.00098261 3.4477e-05 -0.00044799 0.00074492 0.0027921 0.00050865 0.00024138 -0.002317 -0.0014377 0.00092675 -0.0012828 -0.00084946 -0.00058871 -0.0009593 0.0018974 -0.0020402 0.00033011 -0.0016796 0.00057059 0.00056747 -0.00045771 -0.00035574 0.00012544 -0.00034811 0.0024607 0.00040919 0.00064884 0.0020627 7.5298e-05 0.0024987 0.0012001 0.0013896 0.0016471 -0.0023991 -0.0006515 -0.00013394 0.00025961 -0.0021946 -0.00036387 -0.0015176 -0.00017357 0.0018624 -0.00018731 -0.00040223 0.00090351 0.0022674 0.0009703 0.00026273 -0.0016959 -0.00078733 0.00085073 -0.00067929 -0.0014467 -0.0007525 0.00085077 0.00041963 -0.00082549 -3.5882e-05 0.0016219 0.00039587 0.0018668 0.0015498 -0.00077232 0.00012455 -3.9791e-06 0.0020236 4.4222e-05 0.00039013 -0.0006681 0.0012479 0.00082635 -0.00091476 -0.0010346 4.5781e-05 0.0014011 0.0024338 -0.00018078 -0.00055651 -0.001944 -0.001872 0.0014853 0.00029494 -0.00035712
H19-12-3	-0.00083107 0.0014618 0.0014362 -0.0018802 0.0011209 0.0035989 -0.0006396 -2.0678e-05 -0.00020032 0.0026543 -0.0024851 -0.001336 -0.0010887 0.00074426 -0.00068038 -0.00084432 0.00073909 0.0012098 -0.00078866 -0.00026295 -0.0005312 0.0034741 0.0022337 0.0014023 -0.0022431 -9.5757e-05 0.0016646 0.00020163 -0.0013899 -4.2956e-05 -0.00013012 0.0021408 -0.00081512 -0.00032977 -0.002821 0.00018676 0.00044611 0.00082199 -0.0016754 -7.3562e-05 1.1073e-05 0.00057527 -0.00011999 0.00076328 0.0020688 6.5124e-05 0.0020701 -0.00050655 0.00032283 0.0013348 -0.0028274 -0.0013631 -0.001096 -0.00023933 -0.0020032 0.0010172 -0.000503 7.9762e-05 0.0031972 0.00029328 -0.0012241 0.0024786 0.0026404 0.0024369 -0.00016583 -0.001306 -0.0017239 3.7449e-05 -0.0006142 -0.00092835 -0.00093664 -6.6267e-06 0.0013175 0.00039982 -8.5163e-05 0.0015285 -0.00065724 0.00161 0.0027493 -0.00081458 0.0014807 -5.2624e-05 0.0011984 0.0022752 0.0033824 0.0016044 0.0013348 -0.0014526 -0.00091125 -1.1688e-05 3.9105e-05 0.00087747 0.002148 -0.001509 4.575e-05 -0.0019053 0.0010313 0.0023106 -0.0015531 -0.0020087
H19-12-5	-0.0011841 0.00078646 -0.0010202 -0.0017494 0.00079652 0.00063502 -0.0014353 0.00035955 0.0018455 0.00051795 -0.00078966 0.00099244 -0.0018746 0.00070374 -0.0018266 -0.00068793 0.0014506 -0.00049439 -0.00057281 0.00075692 0.0020446 0.0023746 0.00081694 -0.00074073 -0.0015627 -0.0015032 0.0004288 0.00040658 -0.00097742 0.00059854 -0.00072702 0.00124 -0.0015744 3.2981e-05 -0.0022271 -0.00017914 0.0011364 -0.00060306 0.00055483 7.5852e-05 -0.00017922 0.001471 -0.00038541 -0.00082225 0.0022704 0.00096294 0.0027312 0.00037097 0.00046791 0.0014637 -0.0020825 0.00016939 -0.00055562 0.00055042 -0.001366 -0.0011947 -0.00042481 0.0017735 0.0014401 0.0016551 -0.0001135 0.0013787 0.0014419 -0.00017831 0.00016782 0.00066375 -0.0026647 0.0007408 0.00035077 -0.00042114 -0.00059763 0.00035417 -0.00057543 -0.00016149 -0.0015589 -0.00032573 0.0024333 0.00057966 0.00040698 -0.0027221 -0.00031107 0.00070799 0.0029817 -0.001538 0.0014615 -0.0011912 0.001434 0.0014387 -0.0026644 0.00014864 0.0015062 0.00025055 0.0023439 -0.0027487 -0.0005664 -0.0010369 -0.00039479 0.0024226 -0.0014998 -0.00036383
H19-12-4	0.00021643 -0.00060112 -0.00024529 -0.00094004 0.0010863 -2.3849e-05 -0.0018349 0.00012061 0.00040373 0.00032121 -0.00083727 -0.0003492 1.3466e-05 0.000325 -0.0004316 -0.00072402 0.00047676 -0.0005825 0.00037792 0.0005593 0.00056451 0.0014858 7.0902e-05 0.0010776 -0.0016615 0.00010318 0.00085815 -0.0009514 -0.00018899 0.00027809 -0.00061388 0.0027497 -0.00040505 -0.00097948 -0.00065877 0.0020514 0.0005397 0.00070213 -0.00017847 0.0016544 -0.0018268 -0.0003979 0.0016137 1.4564e-05 0.00061762 -0.00031077 0.0026935 0.0012965 0.0015123 0.0015394 -0.0014911 0.00075227 -0.00050049 0.00065033 0.0015251 0.00047397 0.00030067 0.0010456 0.0012433 0.00039291 -0.00026425 0.0013948 0.0013617 0.0012301 0.00066709 0.00064559 1.9527e-05 0.00015314 -0.0010668 -0.00039774 0.0012172 -0.00043686 0.0012277 0.001851 0.00034363 4.6696e-05 -0.00017795 -0.00051913 0.0014833 -0.00040053 -0.00093463 0.0014007 0.00049834 -0.00030858 0.0017676 8.8987e-05 -0.00032616 0.0017782 -0.0009768 -0.00094518 -0.00054578 -0.0024877 0.0019976 0.00032787 -0.0014099 -0.002373 -0.001457 -9.5077e-05 9.3883e-05 -0.0011486
H19-6-A	0.0021767 0.0025779 0.00075015 -0.0020749 5.2448e-05 0.0018574 -0.0033499 -0.0018388 -0.00071765 0.00023475 0.00057917 0.0012055 -0.0012898 -0.0024248 0.00071826 -0.00064394 -0.00054275 0.00032565 0.00086881 0.00078537 0.0021356 0.001106 -0.0013764 0.0018932 0.00044551 -0.00088132 -0.00043285 -0.0016991 -0.0019367 -0.0025482 -0.00059644 -0.00031179 -0.0012469 -0.00078461 -0.0037595 -0.0014835 -0.001036 0.00082914 -0.00097988 0.0013192 -0.0026922 0.0016631 8.024e-06 -0.00030843 0.0010765 -0.0020022 0.0024847 -0.0012843 0.0011507 0.0032526 -0.0018872 0.00076376 0.00094958 -0.00036498 6.6074e-05 -0.0030509 -0.0010226 -0.00010499 0.00064233 0.00027867 -0.0001405 -0.0011004 0.0013715 -0.00051149 -0.00079785 0.00051889 -0.0023723 0.00058993 -0.00089626 -0.0014675 -0.00051231 0.00038357 0.00048861 -0.0020404 -0.0005908 -0.00027161 0.00063029 -0.00086641 0.00066256 0.0018998 0.0012055 0.0014444 0.0014386 -0.0021096 -0.00025104 -0.0029118 -0.0025526 0.00081869 0.0011102 -0.00062437 -0.0005145 -0.0022833 0.0017668 -0.0012584 0.00086215 -0.0016402 -1.3374e-05 0.0010822 -0.0020081 0.00059514
H19-13-A	0.0014523 0.00040887 -0.0001782 -0.0025202 0.00051749 0.0010909 1.3334e-05 0.00023226 -0.00072575 0.0012458 -0.0020202 0.0010772 -0.0026857 -0.00046738 -0.00087757 -0.0024858 -0.00083182 -0.00015894 -0.00065277 0.00085113 -0.0012085 0.002394 0.0010784 -0.0012987 -0.0038393 0.0016872 0.0013842 -0.00143 -0.0017736 0.00023463 -0.00010291 0.00023855 -0.0017608 -0.0015025 0.00043188 0.00084892 -0.00066403 0.00011475 -0.00032092 0.00014047 -0.0024958 0.0016217 0.00067771 0.0002887 0.0016248 -0.0026629 0.002747 0.00071633 -0.0011324 0.0017857 -0.0016082 0.00070155 -0.00015679 0.00092448 -0.0026023 0.00015322 -0.00054705 0.0006548 0.0022898 0.00048079 -0.0012365 0.0025146 -0.00088049 -0.0010263 0.00041139 -0.00038277 -0.00019286 -0.00086892 -0.0037678 8.9285e-05 0.0001826 0.0016125 0.0019441 -9.2353e-05 -0.0004997 0.0020597 3.5093e-05 0.00080758 0.0015247 0.000228 0.0011428 0.00019542 0.0018281 0.0016149 0.0038134 -0.00052855 0.0025117 0.00079888 -0.0024715 0.00074199 0.00065123 -0.0017949 0.0015842 0.0014013 -0.0023119 -0.0012191 -0.0032968 0.00086461 -0.0018128 0.001228
H19-26-I	0.00119 0.00095844 -0.0015088 -0.0005796 0.0011214 0.0017445 -0.0013953 -0.000713 -0.00089702 0.0029859 -0.00079067 0.0011393 0.00035001 -0.00021716 0.00040598 0.0016355 -0.00018289 -0.00095642 -1.9014e-06 -0.0011249 0.00045066 0.00095964 0.0016275 -0.00038568 -0.0008136 -0.00072351 -0.00099052 -0.00035883 -0.0017307 0.001426 -0.00063217 0.00037747 -0.00053791 -0.0010406 -0.0022651 0.00029256 0.00069591 -0.0017606 -0.00067467 -0.0014861 0.0012374 0.003294 -8.4333e-05 0.0012012 0.00070545 -0.00091137 0.0012442 0.00075717 -0.0013265 0.0022732 -0.0026387 -0.001596 -5.0344e-06 0.00023516 0.00093942 0.0006566 0.00085521 -0.00047504 0.00147 -0.0013078 0.00039634 0.002524 0.0039381 -8.2798e-05 0.00072688 0.0010795 -0.001531 0.00027621 6.8835e-05 0.00078225 -0.0014382 0.001137 -0.00032991 -0.0020415 -0.0012866 0.0014294 0.0027968 0.0019223 0.00057476 -0.00066135 4.2188e-05 0.00079292 0.0013131 -0.00012799 0.0017007 -0.0019207 -0.00045758 0.0022509 -0.00064671 -0.0025735 -0.00018658 0.0010249 0.0019281 -0.0021683 0.00089349 -0.0014102 -9.8784e-05 0.00096301 -0.00098054 -0.00025725
H19-4-I	0.0014981 0.001518 -0.0014962 0.0006333 0.00099937 0.00048175 -0.0012165 0.00060984 0.0018952 0.0022375 -0.00032691 0.00015563 -0.00029619 0.002669 -0.0013157 -2.6061e-05 -0.00058815 -0.00018257 -9.2769e-05 -0.00054896 0.0012936 0.00082335 0.00061251 0.00022049 -0.00056401 0.00016218 0.0009877 0.00052226 -0.0013748 0.0011822 0.00044641 0.00052805 -0.0010161 -0.0003283 -0.0010029 0.00065343 0.00023912 -0.0011507 0.00074039 0.0011727 -0.00051216 0.0011145 0.0016289 0.0018653 0.0017819 -0.00040768 0.00029756 0.0016423 -0.0013009 0.0021313 -0.0017366 0.001137 -0.00040216 0.00021693 -0.00077244 -0.00018041 -0.0011822 0.00042899 0.0013013 -0.00044943 0.00089842 0.00073433 0.00047133 0.0020751 0.00035237 0.00010544 -7.9168e-05 -0.00050004 -0.0015508 0.00041684 -0.00071294 0.0025225 0.00046608 -0.0001067 0.00050358 0.00022562 0.0014238 0.00027659 -0.00031181 -0.0017095 -0.00086391 0.0019634 0.0011976 -0.00085337 -9.8598e-05 -0.00080281 -0.00058066 0.00193 -0.00068339 -0.0016998 0.0013942 0.00011513 0.0017302 -0.0012472 -0.0008366 -0.0011859 0.0008278 0.0015989 -0.00032685 -0.00034521
H19-3-U	0.00086175 0.0005382 -0.001736 -0.0023971 0.0015126 0.00038423 -0.0019423 -0.00083093 0.00028977 0.00082543 -0.00072283 0.00037461 -0.0006792 0.0001842 0.0016054 -0.0012175 -0.00021111 -0.0015015 0.00069233 0.00061318 0.0017174 0.00084894 -0.00031332 0.00057715 -0.0011409 -0.00035656 0.00057934 -0.0019271 -0.0011695 0.0014147 0.00026924 0.0022719 -0.00018235 0.00065339 -0.0021382 0.00081875 0.00080948 -0.00074163 -1.1941e-05 0.002346 -0.00063636 -0.00063092 -5.4652e-05 0.00036654 0.0017551 -0.00040727 0.0017667 0.0016655 0.00052893 0.0014836 -0.0014243 -0.00019152 -0.00095857 -0.0011026 -0.00086573 -0.001189 -0.00044104 -0.00012311 0.00083634 -0.0003549 2.5246e-05 0.0018981 0.0017523 0.0017492 -0.00012462 0.0012205 0.00024307 -0.00069758 -0.0018768 -0.00091262 0.0013504 0.00054162 0.00061946 0.00049963 -0.0017504 0.0013489 0.002059 0.002351 0.0027004 -0.0010555 0.00082983 0.00010134 0.00078296 -0.00014926 0.0028305 -0.00012483 0.00059376 0.0015118 -0.00091563 -0.00069163 -0.00015721 -0.0014502 0.0015268 0.00050945 -6.8514e-05 -0.0010938 -0.0014406 0.00027476 0.00040096 -0.00051584
H19-26-O	1.9041e-05 0.0016493 -0.00057473 -0.00077162 0.0034617 0.0020436 0.00032096 -0.00015041 0.00070307 -4.2512e-05 0.00013778 0.0003996 -0.00044491 0.0012481 -0.0043949 -0.00042405 -0.0024215 0.0017448 -0.00049718 0.00035713 -0.00081168 0.0036818 0.0021298 -0.0021725 -0.0010729 -0.0018144 -0.00032199 -0.00047678 0.00018716 0.003146 -0.0021557 0.00049877 -0.0015913 -0.0020711 -0.0017793 0.0012367 0.0014386 -0.00022421 -0.00096333 -0.0014797 0.00062231 0.0036224 -0.00088761 0.0022643 -0.00066511 -0.0010328 0.00072177 -0.0016069 -0.00087065 0.00019502 -0.0029375 0.00055827 -0.0013072 0.0013097 -0.0020573 -0.0020514 -0.0015051 0.0016219 0.0010161 0.00081707 0.00057978 0.0012969 0.0030605 0.00046368 0.00084997 0.00032665 -0.0031331 0.0011029 0.00086689 -5.8037e-05 -0.001718 0.00088782 0.00076913 -0.0014359 -0.0020843 -0.00082251 0.001427 0.0027503 0.0019353 0.0013649 -0.00068096 0.00086091 0.0030011 -0.0016214 -0.0012142 -0.0011486 0.0011115 -0.0012784 -0.00060999 0.00049534 0.0023986 0.00049537 0.0014859 -0.0030507 0.00068097 -0.0029189 -0.00015298 0.00048928 -0.0016298 -0.0021761
H19-16-5	-0.00052887 0.002903 -0.0011388 -0.00089542 0.0022391 0.00082116 -0.001726 -0.00054992 0.000985 0.00028353 -0.00089411 0.00086153 -0.0011779 0.00083056 -0.002033 -0.0013159 6.8235e-05 -0.0003749 -0.00022443 -0.00098812 -0.00058064 0.0029544 0.001961 -2.2106e-05 -0.00050239 -0.0014417 -0.001483 -0.00032157 -0.0020021 -0.00021281 -0.00019129 -0.00055057 -0.00094977 -0.0014813 -0.0017001 0.0013037 -0.0014092 -0.0016688 -0.0015505 -0.00082777 -0.002757 0.0022609 0.00022473 -0.00014933 0.0024599 -0.00054253 0.0023127 -0.0010294 -0.00012528 0.0015393 -0.0014741 -0.0013759 -0.00037137 0.0017561 -0.00051915 -0.0015736 -0.00092661 0.0012405 0.0022614 0.00066956 -0.0015243 0.0023838 0.0012223 0.00031867 -0.00088861 0.00067511 -0.0016566 0.00057013 -0.00027744 0.0002281 -0.0003569 0.0020555 0.0026517 -0.00092229 -0.00069783 -0.00010108 0.0014539 0.0018642 0.002404 -0.0013076 -0.0001681 0.00083049 0.0032823 -0.00056658 0.0017409 -0.00060919 -0.00035953 -0.00068609 -0.00047223 -0.00028726 0.0021366 -3.5743e-05 0.0031134 -0.0018405 0.0010135 -0.00089286 -7.8356e-06 0.0014351 -0.0017464 -0.0030673
H19-3-E	0.0020554 0.00068995 -0.0014462 0.00023806 0.0011206 -0.00018859 -0.00069907 0.00044185 0.00081455 0.00055564 -0.00066236 0.00032685 -0.00076703 0.00065035 0.0018379 -0.00055783 -3.9999e-05 -6.1842e-05 0.0011586 0.0012118 0.0011108 0.0010422 -0.00051232 1.2228e-05 -0.0013954 0.00037514 0.00086644 -0.0010179 -7.1201e-05 0.00048763 0.00044938 0.001884 -0.00021772 -0.00031303 -0.001803 0.00057829 0.0014233 -0.00030245 -0.00024156 0.0018452 -0.0010383 -0.0017403 0.00049729 0.00029625 0.0014309 -4.6457e-05 0.0017073 0.00049435 -0.00089089 -0.00055727 -0.00083338 -0.00050697 -0.0012858 0.00037387 -0.000368 -0.0020605 -0.0017303 0.0014178 -0.00018514 0.00035834 0.0005734 0.00078403 0.0016548 0.0011697 8.2046e-05 0.00073816 0.00084758 -8.9507e-05 -0.00088194 -0.00071797 0.00071345 0.0005944 8.4766e-05 0.00031162 -0.0010322 0.00097472 0.0023992 0.0022957 0.0026349 -0.00050186 -0.00018446 8.09e-05 0.0014979 0.00056826 0.0030239 0.0010006 -0.00011152 -0.00037694 -0.0011695 -0.00056637 -1.5973e-05 -0.0013393 0.00085086 -0.00029649 -0.00095293 -0.0013301 -0.00029748 0.0012299 -0.00081445 -0.0018157
H19-3-A	-9.3588e-06 0.00099188 -0.0017515 -0.0018156 0.0015452 0.0010155 -0.00091151 0.00032602 0.0012369 0.0011773 -0.0012543 0.0005343 -0.00043699 0.00014218 8.6485e-05 -0.0014852 -0.00071622 -0.00052597 0.0013184 0.00030665 0.00068202 0.0016845 9.0308e-05 -1.5903e-05 -0.0004856 -0.00033757 0.0013999 -0.0015778 -0.00035996 0.00040684 -0.00031771 0.00056647 -0.00068131 0.00032955 -0.0021063 0.00083667 0.00088452 -0.0011957 -0.00051557 0.0017809 -5.4251e-06 -0.00077999 -0.00038321 -0.00074328 0.001613 -0.00034748 0.0019057 -0.0007713 -0.00046125 0.00088014 -0.0012919 0.00017019 -0.0015843 0.00031212 -0.0014006 -0.0017716 -0.00079516 0.0023885 0.0016238 0.00039801 -0.0015259 0.0015363 0.0017699 0.00046923 -0.00062263 0.0012988 -0.00097977 0.0004686 -0.0021969 -0.00060595 0.0006731 0.00030628 -9.0687e-07 0.00031187 0.00024322 0.0004028 0.0020383 0.0021765 0.0019743 -0.00093734 -1.9409e-05 0.00058113 0.00053646 0.00040446 0.0024192 0.00044361 -0.00063669 0.0011273 -0.0023103 -0.00038321 0.00060072 -0.0011855 0.0010178 -0.00096603 -0.0015729 -0.0013753 0.00045141 0.00089618 -0.0014914 -0.0010577
H19-14-1	-0.00077553 0.0021911 -0.0013799 -0.0024376 0.00042355 0.0019487 -0.0011214 0.0004214 0.0012893 0.0024024 -0.00042099 0.00062809 1.3454e-05 0.00096552 -0.0016248 -0.00073448 0.00063934 -0.00022171 -3.2535e-05 -0.00047292 0.00043847 0.0015067 0.0017072 -0.00035853 -0.0012161 -0.0020276 -0.0008412 -0.00033599 -0.000926 0.0016397 -0.0020818 0.0010615 -0.00069852 -0.00031804 -0.0039712 -0.00049953 0.001794 -0.0021051 0.00024477 -5.6034e-05 -1.5467e-06 0.0024093 -0.0005551 -0.00023255 0.0015495 -0.0003187 0.00061309 0.0012074 1.7638e-06 0.001935 -0.0025779 0.00089418 -0.0012648 0.00064464 -2.0495e-05 -0.00077197 -0.00032437 0.00064515 0.0025974 0.0012834 -0.00026895 0.0006119 0.00078926 0.00023483 0.00076975 0.00063603 -0.0023907 0.0014604 0.00084022 0.00045898 -0.0011254 0.00017814 -0.0015693 -0.00030575 -0.00030292 0.00026721 0.0029046 0.0013073 0.0010374 -0.0010396 -0.0015622 0.00093136 0.0032553 -0.0016732 0.0011476 -0.00066075 0.0019399 0.00069785 -0.0015716 0.00013832 0.0020036 0.0016262 0.0018988 -0.0019596 0.00010042 -0.0017934 -0.00016666 0.0030621 -0.0018775 4.2736e-05
H19-26-U	0.00092025 0.0026535 -0.00026033 -0.00075158 0.0017577 0.002762 0.00013518 -0.00027602 -0.0004524 0.0033306 -0.00066351 0.00075656 0.00026151 -0.00030276 4.6753e-05 0.0018506 0.00017932 0.0005505 -0.0013421 -0.00313 0.0016377 0.0021532 0.0021223 -0.0012791 0.00072065 -0.00028152 -0.0017343 -0.00032721 -0.0022548 0.0029335 9.0167e-06 0.00016067 0.00092988 -0.0022701 -0.0022364 -0.00020415 0.001068 -9.4998e-05 0.00029717 -0.0017566 0.0011488 0.0031752 0.00066405 0.0014898 0.00036519 -0.0014231 0.00053878 0.00069088 -0.0023088 0.0023137 -0.0018035 0.00063083 -0.00099457 0.00074087 0.00096263 -0.00070435 0.00069308 -0.0013744 0.0017326 -0.00036205 0.00099188 0.0026127 0.0040733 0.0011627 0.00099687 -2.9174e-06 -0.0010222 0.00026699 -2.856e-05 0.0022686 -0.0026167 0.0023588 -0.0013341 -0.0013554 -0.00043079 0.00056213 0.0022001 0.0018555 0.00011477 -0.0016325 -0.00047355 0.0011707 0.0020243 -0.00038525 0.00031295 -0.0035291 -0.00090882 6.2694e-07 0.00092117 -0.0014808 -0.00072193 0.0029386 0.002447 -0.0017098 0.0019609 -0.0022792 0.00071086 0.0018848 -0.0014282 -0.0016841
H19-3-I	0.0013174 0.0013424 -0.0008545 1.569e-05 0.0010255 -0.00067556 -0.0012629 0.001072 0.001021 0.00063902 -0.0019682 0.00051788 -0.0020816 0.0010046 -7.4939e-06 -0.00073892 -0.00050949 -0.00013636 0.0013182 0.00090971 0.00090818 0.001907 -1.8848e-05 0.0004957 -0.0013741 0.00021193 0.0012056 -0.0012541 -0.00087956 0.0008245 -0.00021404 0.0015168 -0.00061883 0.0008892 -0.0014994 0.00061933 0.0014067 -0.00023242 -5.094e-05 0.0017689 -0.0013264 -0.001119 -0.0010507 0.00017164 0.0016663 -0.0012852 0.0015651 -0.00088397 -0.0011699 0.00079049 -0.00088818 0.00072578 -0.0010174 0.00021754 -0.00011542 -0.001493 -0.00069144 0.0007205 0.00039158 0.00055097 -0.00061434 0.0017217 0.0018468 0.0014508 -0.00066234 6.0942e-05 7.1205e-05 0.00045628 -0.00092302 -0.0008604 0.001141 0.00018404 0.00069678 0.0011278 -0.0014712 0.00082356 0.0014893 0.0016697 0.001751 -0.0012266 0.00033986 -0.00020697 0.00070136 -5.5487e-05 0.0025515 0.0012472 0.00037418 0.00049253 -0.0019278 -0.0018377 3.1701e-05 -0.0017534 0.0022568 0.00019868 -0.0020985 -0.00087806 0.00051061 0.001584 -0.0010892 -0.001222
H19-13-E	0.0022455 -0.00050843 0.00023476 -0.0013884 0.0016243 0.00032826 -0.00097022 -0.0015359 0.0011975 0.0015564 -0.00033684 0.0010402 -0.00026058 0.00051792 -0.00035202 -0.0001017 0.0022087 0.00033545 0.0002995 -0.00021419 0.00016544 0.0014496 0.00051264 -0.00035186 0.0020193 -0.0017192 0.00090546 0.00044701 -0.00016212 0.0024732 0.00041145 4.834e-05 -0.0020321 -0.00056352 -0.00033987 0.00045551 -0.00050609 -0.00080016 -0.0010739 0.00014006 -0.00062281 0.0013326 0.0026605 0.0020792 0.001175 -0.00232 0.00040067 0.0016799 -0.00021729 0.0010769 -0.0024675 0.0015038 -0.0004447 0.001369 4.7368e-05 0.0009821 -0.0005534 -0.00091197 -0.00061715 0.0020301 -0.00098759 -0.0012626 0.0019462 0.0017263 0.00034916 0.00044023 -0.00091313 0.0005869 -0.00022979 -0.00081488 -0.0001616 0.00032223 -0.0014843 -8.2884e-06 0.00081893 -0.00053677 -0.00048656 -0.00031029 0.0019845 0.0011035 -0.0013451 0.0014276 0.00016938 -0.00071577 0.0020645 -0.0014672 0.00090507 0.0017695 -0.00094073 0.00082189 0.0020402 -0.00033911 0.0024891 -0.00041667 -0.0011062 -0.00068256 -1.2972e-05 0.00097345 -2.3113e-05 -0.0011428
H19-1-3	8.8891e-05 0.00069292 0.0010645 2.1441e-05 0.0027184 0.00077697 -0.00063303 0.00049042 -0.00032789 0.00026408 -0.0016166 0.00013485 -0.0015782 0.00044581 -0.0028862 -0.0017811 0.00042514 -0.00010189 -0.00029256 0.0019177 0.0020103 0.0014995 -2.6756e-06 0.00077032 -0.0015181 -0.0015407 0.00028711 -0.00076306 -2.077e-06 0.00059752 -0.0021307 0.001021 0.001531 0.00087474 -0.0013248 -0.00030614 0.00031023 -0.00047866 -0.00026382 -0.0010873 0.00037195 0.0027193 -0.00068602 0.0005188 -0.00016605 -0.00087514 0.0027038 6.9268e-05 0.00088001 0.0025888 -0.0034915 -0.00059783 0.00020066 0.0012383 -0.0016419 -0.0019156 -0.0010077 0.0014341 0.0016589 0.0005094 -0.00091611 -7.6043e-05 0.0025875 0.00064075 1.8599e-05 0.0003822 -0.00077746 0.0010043 -0.00083666 6.0651e-05 -0.00083351 -0.00016169 -0.00020829 -0.00032452 -0.00087693 0.001529 0.0011736 0.001992 0.00074441 0.00015502 -0.00073186 -0.00026846 0.0029129 0.00084001 0.0006519 0.00013212 0.0011855 0.00048322 -0.00052237 -3.0808e-05 0.0022138 -0.00043413 0.0018631 -0.00074188 -0.0015982 -0.0020288 0.00013296 -0.00086968 -0.00077943 -0.0013796
H19-1-5	-0.0005977 0.0012096 -0.00061363 -0.0012684 0.002267 0.00056044 0.00017985 0.00037421 0.0025497 0.0016862 -0.00018314 0.0008406 0.00027382 0.0022262 -0.0018139 -0.0016805 -0.00030185 -0.00073738 -0.0004523 0.0003803 0.0017536 0.001473 0.00059586 -0.0010211 -0.0018612 -0.00053876 0.00036478 0.0005587 -0.00052318 0.0027028 -0.00025916 -0.00034247 -0.001439 -0.00081031 -0.00069672 0.00019992 0.00081429 -0.00095077 -0.0010224 0.00010531 0.00065 0.0019539 0.00030072 0.0005275 0.00040406 -0.0017326 0.001106 0.00015412 -0.00084742 0.0011465 -0.003291 -0.000508 -0.00022296 0.00079921 1.3192e-05 -0.0013216 0.00027391 0.00060783 0.00017507 0.00053287 -0.00051847 0.0017623 0.0013983 9.8622e-05 0.00069281 0.0019702 -0.0017953 -0.0013369 -0.00034054 0.0002407 -0.0010405 0.0011025 0.00019517 0.00092819 -0.0010481 -0.00023859 0.00031888 0.00047903 0.0017998 -0.00033232 -0.00075852 0.0011299 0.00011675 0.00028335 -6.6576e-06 -0.0018727 0.0010524 0.0022418 -0.0017382 3.0636e-05 0.001086 -0.00023621 0.0027812 -0.0024243 -0.0013081 -0.0027564 0.00018905 -0.00087588 -0.00029489 -0.00099634
H19-15-I	-0.0010089 0.0010251 -0.00051042 -0.0016557 0.0024519 0.00014015 -0.00097132 -0.0005346 0.0027069 0.0017426 -0.00030247 -6.3987e-06 0.00044614 0.00035236 -0.0008915 4.5253e-05 0.0009862 0.0025148 -0.0011434 2.4529e-05 0.0010172 0.002041 -0.00066057 -0.00058338 -0.00083026 -4.2002e-05 0.00074991 0.00014502 -0.001786 0.00043502 -0.0024395 0.0005047 -0.0022119 -0.00016034 -0.0025079 -9.1332e-05 -0.001089 0.00037741 -0.0015689 0.00036235 0.00045336 0.0032661 0.0003129 0.0011506 0.00066483 -0.00048306 0.0015333 -0.00040778 -0.00012199 0.0011455 -0.0019697 0.0022643 -0.00038629 0.0015057 -0.00048959 -0.00036547 -0.00092787 2.6921e-05 0.0017039 0.0012753 0.00034117 0.0023886 0.00057065 0.0010501 0.00059969 -0.00066779 -0.00090501 0.0011938 0.00064101 0.0006793 -0.0010397 -0.00014841 -0.00058276 -0.00081779 -0.00031317 8.5919e-05 0.00066491 0.0002781 0.0016863 -0.00020291 -0.0020211 0.0016021 0.0026462 0.00077153 0.00013172 -0.00084819 0.0012866 0.00095739 -0.00060227 -0.0015441 0.0014306 -0.00066594 0.0016579 -0.0028411 -0.00050932 -0.00025132 -0.00037806 0.0011421 -0.0011614 -0.0011175
H19-13-O	0.0011323 0.00022101 -4.2273e-05 -0.0022711 0.0010813 0.0010814 -0.00042116 -0.0011483 0.0018024 0.0027325 -0.00095392 0.0015879 9.545e-05 -1.1687e-05 -0.0003771 0.00044954 0.0019835 0.00010851 0.0011894 -0.00084311 0.00068387 0.00017487 0.00031859 -0.0004565 0.0019806 -0.00075082 0.00095208 -0.00078893 -0.0013852 0.0030173 0.00037485 0.00064012 -0.0025107 0.00059829 -0.0014558 4.0826e-05 -0.000575 -0.0004076 -0.00080106 -2.5945e-05 -0.00045955 0.0030103 0.0025414 0.0013477 0.00048644 -0.0021137 0.00063818 0.00040684 -1.0126e-05 0.0008365 -0.0014092 0.0022473 -0.00026008 -0.00025726 -0.00016346 0.00093153 -0.00057 -0.0013609 -0.00016459 0.0013979 -0.00039219 -0.00098079 0.0014327 0.00046124 -0.0007117 -0.00030392 -0.00086584 0.00099598 0.0011452 -0.0017463 -0.00081681 0.00076672 -0.0015924 -0.00049251 0.00034278 0.00045482 4.4997e-05 0.00062528 0.00097806 -0.00031756 -0.0011229 0.00091074 0.00095818 -0.0011766 0.0015923 -0.0022473 0.00089145 0.0018052 -0.00014544 -7.0483e-05 0.00096752 -0.00058084 0.0019532 0.00018543 -0.00013936 -0.00089142 0.00028005 0.0013611 -0.00013669 1.6879e-05
H19-13-I	-0.0025316 0.00030294 -0.00022379 7.0889e-05 0.00065143 -0.0010939 -0.0038356 -0.000402 -0.00089963 0.0013988 -0.0011888 -0.00081777 -9.7403e-05 0.00082847 0.00013388 -0.0015047 0.0013704 0.00032383 0.00062616 -0.0014357 -1.2646e-05 -0.00087506 0.0010821 -0.00042281 0.00089019 -0.0010789 0.0013776 0.0026006 0.00027113 0.0023312 -0.00081025 -0.0016228 2.4247e-06 -0.00063581 -0.0030353 -0.0017333 0.00010591 -0.00084507 -0.00075856 0.00080213 -0.0010998 -0.0001085 0.0009001 -0.0014652 0.0014662 0.00020652 0.00024353 -0.0011747 -0.0023095 -0.00014797 -0.002306 0.0011507 -0.00071409 -0.00012893 0.0029229 0.0010543 -0.0022525 -0.0022361 0.00085714 0.0018651 -0.00098698 0.0026063 0.0026795 -0.00024221 -0.00081956 0.00014146 -0.0019153 0.00082629 -0.00059305 -0.00039164 -0.0010486 -0.0011932 -0.00037908 -0.0012906 -0.00028192 0.00014741 0.0014686 0.00033561 -0.002916 0.0020478 0.00014172 -0.0012603 0.0010141 -0.001644 0.0022351 0.00020772 -0.00048966 0.00059092 0.0014171 -0.0019076 -4.3908e-05 0.00061287 0.00051938 -0.0031375 -0.0018709 -0.0024594 -6.8045e-05 0.00066147 0.00076281 -0.0027786
H19-13-U	0.0011397 -0.00040923 0.00098811 -0.0019438 0.0011902 0.00019166 -0.00075593 -0.0014581 0.00064077 0.0022224 -0.0012553 0.00020339 -0.0010283 7.0365e-05 -0.0009557 -0.00013342 0.0017696 0.0008915 -0.00086209 -0.00065791 0.000263 0.0016687 0.00082639 0.00044091 0.0017161 -0.00059613 0.00068805 0.00016042 -0.00092785 0.0030195 -0.00031335 0.00024579 -0.0020388 -0.0012439 -0.0010718 0.00020457 -0.001 -0.0006378 -0.0016188 0.00013917 -0.00090613 0.002177 0.0020297 0.0019462 0.00022752 -0.0017271 0.00085784 0.00037192 0.00025964 0.00091361 -0.0029888 0.0014023 -0.0010289 0.00086376 -0.00040562 0.00040483 0.00015039 -0.00088223 0.00075221 0.0018774 -6.5027e-05 -0.0011718 0.0016877 0.0013724 0.00035493 0.00031465 -0.00097249 0.0014718 -0.00089397 -0.00072035 -0.0009956 0.00078425 -0.001313 -2.9443e-05 0.00017462 -0.0012958 -0.00038761 -0.00056187 0.0019959 0.00092856 -0.00089905 0.0013799 0.00057856 -0.00018043 0.0017464 -0.00092036 0.0015698 0.00057465 -0.00062436 0.00048885 0.0012881 0.00046829 0.0016175 -0.00073703 0.00021717 -0.00063072 -0.00026237 0.00090424 -0.00076601 -0.0016951
H19-7-2	0.00022923 0.002998 0.003469 -0.001034 0.00038162 0.0036853 -0.0017185 0.0020954 0.0010485 0.0041601 0.0015054 -0.00071933 -0.0011525 0.0017909 -0.0039575 -0.00098084 -0.001618 -0.0019361 0.00033794 -0.002766 -0.0029726 0.0031197 0.001964 -0.0027956 -0.00091907 -0.0013497 -0.0010508 -0.0016829 0.00039751 0.0025491 -0.00043183 -0.0014247 -0.00096977 -0.00081408 -0.001846 0.00063454 -0.0028098 -9.439e-05 -0.0018516 -0.00032745 0.0005064 0.0026667 -0.0004951 -0.0010142 0.0033494 0.0011005 0.002845 -0.0040455 -0.003816 6.6427e-05 -0.0023826 5.7659e-05 -0.0047902 0.0011389 -0.00014176 -4.941e-05 -0.0015688 0.0011847 0.0022496 -0.0017715 -0.0023531 0.0012477 -6.0112e-05 0.0011897 0.0017526 0.000542 -0.0030184 0.00019492 0.00010536 2.9691e-05 -0.0025602 0.0018872 -0.0013089 -0.00028463 -0.002291 4.1191e-05 -2.5825e-05 0.00084909 -0.00026244 0.0012812 0.0010363 0.0034442 0.003897 6.2543e-05 0.0038111 -0.0044688 -0.0033876 0.00094546 -0.00068243 -0.00012839 0.0014903 -4.8716e-05 0.00034853 0.00092997 0.001302 -0.0011245 -0.0035351 -0.00018633 -0.00015107 -0.0039277
H19-30-1	-0.00030594 0.00046659 -0.0011673 -0.00014406 0.0016994 0.0012176 0.0013625 0.00033872 0.0023187 0.0017549 -0.0023164 -0.0012691 0.00031699 0.0008152 -0.0011054 -0.0011016 0.0016713 0.0019382 -0.0022623 -0.00065825 2.7452e-05 0.0012855 0.00098031 -0.0013391 6.5171e-06 -0.0012053 0.0010492 -0.00090188 -0.0016039 0.0021433 0.00011498 0.0017494 0.00032967 -0.0026831 -0.0021908 -0.0010418 -0.0010525 -0.00051963 -0.000414 -0.00080188 0.00020035 0.0030272 0.00052949 0.0020188 0.00095422 -0.00073263 0.00099029 -0.00077022 0.0003849 -5.9834e-05 -0.0027871 0.0030419 -0.00027156 -0.00012192 0.00025738 0.00053374 -0.00051513 0.00060438 0.00091647 0.00084364 3.4637e-05 -0.00031417 -3.6628e-05 0.0016252 -0.00013023 -0.00031138 -0.0011694 0.00053451 0.00051712 0.00029701 -0.0010508 -0.00074868 -0.00047054 -0.0014685 -0.0004172 -0.00036214 0.0016542 -2.5223e-06 0.0011983 0.00018906 -0.00061009 0.00042484 0.00087515 -0.00054319 0.00055586 -0.002122 0.0010265 0.00011476 0.00055309 -0.00016621 0.0012321 0.0026054 0.0035567 -0.0015518 -0.00038666 -0.0015602 0.00072611 -0.00015687 -0.00051221 -0.00024297
H19-10-O	-0.0011416 -0.00013774 -0.00036444 -0.0014084 0.002509 -0.00081188 0.00044014 0.00035044 0.00011647 0.00037333 -0.0022874 0.0012223 -0.00052531 -1.9566e-05 -0.00073116 -0.000144 -0.00033838 7.9052e-05 -0.0019878 -0.0011028 0.00014228 0.0017113 0.0013387 0.00036925 -0.0018329 -0.0016169 0.0010571 -0.0023241 0.00030468 0.00023429 -1.0158e-06 0.00045586 -0.00025276 -0.00034014 -0.0020183 0.00017317 -0.00064638 0.0010297 -0.0019912 0.00027267 0.0003735 0.0020129 0.00058646 0.00067513 0.0017471 0.00021578 0.0023171 -0.000213 0.00092296 -0.00030812 -0.0024893 0.00023395 -0.00065129 -0.00038064 -0.0008948 -0.00097539 0.00046755 0.0012212 0.0019325 -0.00038416 -0.0026123 0.00027361 0.00084408 0.00063818 -0.0018229 -0.000782 -0.0029484 0.00064414 -0.0012836 0.00023674 -0.0018733 -0.00062771 0.0010473 -0.00084951 -0.0010329 0.00089907 0.0010479 0.0022414 0.00041456 0.00036773 0.00080892 -0.00053191 0.00080022 0.0015714 0.00066467 -0.0002976 -0.00073398 0.0011489 -0.0020384 -0.0010815 0.00057625 -0.00064864 0.0022536 -0.0008656 -0.0015237 -0.00048241 -0.001098 0.0020871 -0.00091584 -0.0014061
H19-16-4	-0.00014928 0.000918 4.7612e-05 -0.0020231 0.0019652 0.0029197 -0.00022157 -0.00079761 0.0017077 0.0021004 -0.00031951 0.00099624 -1.5927e-06 0.0016759 -0.00061852 0.0010654 -0.0006796 0.00057967 -0.0011739 -0.00035334 0.0004386 0.0013654 0.0018113 0.0011554 -0.0017409 -0.0004983 -0.00029318 -0.00019585 0.00013215 -0.0014087 -0.00021254 -0.0021422 -0.00058019 2.1919e-05 0.00014143 0.000473 -0.0010979 -0.0016299 -0.002137 -0.00060319 -0.0015114 0.0010075 0.0012287 -0.00039134 -0.00049439 -0.00088701 0.0033407 -0.0011018 0.0014017 0.0026675 -0.0014901 -0.00093288 -0.001899 0.0016969 -0.00013878 -0.00061509 -0.0007829 -0.0017007 0.001443 -0.0011428 0.0010645 0.001354 8.8785e-05 0.0014356 0.0011031 8.9385e-07 -0.0015476 0.00040252 -0.0023246 1.8095e-05 -0.00071147 0.0033365 0.0018632 -0.0020499 -0.00054849 0.0010543 0.00054009 0.0010226 0.0011633 0.00031927 -0.00074007 0.0013344 0.0032116 -0.00074686 0.0010027 -0.00016526 0.00086186 -0.0025698 -0.0020479 -0.0011763 0.0011736 -4.8558e-05 -0.00063155 -0.00095481 0.00021201 -0.0018844 -1.6209e-05 0.00090079 -0.0011571 -0.00087108
H19-16-1	5.0112e-05 0.0013438 0.0011062 -0.0004802 0.0020872 0.00051303 -0.0015698 0.00033036 0.0021544 0.0021159 -0.0011454 0.0001551 0.0004661 0.001735 -0.0016963 0.00032732 -0.00018379 0.00099778 -0.0001871 2.6284e-06 0.00020184 0.0012276 0.00073431 -0.0006906 0.000495 -0.0023772 0.002264 -0.0012878 0.00091169 0.0013478 0.00012012 0.00032086 -0.0007856 0.00030265 -0.00098985 0.00011756 0.0011111 -0.0014014 -0.0013228 0.0005509 0.00018035 0.0018741 0.00021326 -0.0002282 0.00042259 -0.00059645 0.0023007 -0.0006979 -0.00037052 0.0015375 -0.0011932 0.0016774 -0.0018389 0.00056411 -0.0018765 -0.00032277 2.3269e-06 0.0012876 0.0012376 -0.00068665 -0.0013361 0.0016125 0.00061833 0.0020237 0.00013523 0.00041351 -0.0015093 0.0011575 0.00043971 -4.85e-06 -0.00095845 0.0003375 -0.00046598 -1.9787e-05 -0.00046124 0.00082019 0.00088372 0.0021067 0.00056278 0.00088132 -0.00073873 -9.7487e-06 0.0024738 -0.00085041 0.00094863 -0.0026656 -0.0012286 0.0014693 0.00040351 -0.0025382 0.0011931 -0.00089879 0.0034896 -0.00074622 -0.0011196 -0.00030682 -0.00010018 0.00067938 -0.00019237 -0.0013161
H19-16-3	-0.0012354 0.0026127 -7.8999e-05 -0.00051491 0.0012842 -0.00010373 -0.00090668 -0.00054119 0.0025594 0.0018888 -0.00033435 0.002077 0.00045065 0.0010468 -0.0029568 -0.00094741 -0.00086863 6.8571e-05 0.00013986 -0.00069517 -4.0226e-05 0.00051463 0.0033658 -0.0013659 -0.00068858 -0.0018935 0.0011795 -0.0015302 -0.00098974 0.0022368 -0.00096825 -0.00060872 -0.00268 -0.00095392 -0.00041329 -0.00089184 0.001517 -0.00099782 -0.0021576 -0.0011889 0.0010753 0.0014003 0.00088743 0.0001905 0.00077991 -0.00095334 0.0014695 0.00022243 0.00036492 0.0013963 -0.001527 0.00073834 -0.0015168 7.1664e-05 -0.00069153 -0.0013139 -0.00041341 0.00051532 0.0014195 -0.00076973 -0.0026271 0.002088 0.0011668 0.00028898 0.00018512 0.0005039 -0.0019932 0.0011761 0.00063619 0.00046462 -0.0024203 0.00095385 0.00055502 -0.00068157 -0.0016539 0.00064808 0.0019803 0.0033326 0.0002925 0.0010889 3.1104e-05 0.0015615 0.0019626 -0.0011406 -0.00052596 -0.0027915 -0.00036073 0.00098661 -4.5755e-06 -0.0022282 0.0024607 -0.00021739 0.0012172 -0.0020231 -0.0014222 -0.0031418 0.0010054 0.0011997 -0.00052114 -0.0007568
H19-10-I	0.0005736 -0.00041872 0.0010657 -0.0023159 0.0039515 0.00066814 8.7821e-05 0.0009333 0.00010631 0.00097118 -0.00045606 0.0012523 -0.00063504 -0.00067328 -0.00064795 -0.00082338 -0.00055543 0.0027913 -0.0013949 -0.00078874 0.00071997 0.0011615 0.0027287 -0.00053829 -0.0012481 -0.003551 6.6247e-05 -0.00062342 1.8552e-05 -0.001691 0.00016966 -0.00029597 -0.00018838 0.00042351 -0.0015444 0.00098192 0.00040197 0.00047873 -0.0017704 -0.0025088 -0.0015401 0.0031251 -0.00058311 0.0015096 0.0031034 0.00038141 0.0035839 0.00086679 0.00057134 0.00092371 -0.0015973 0.00037509 0.00029711 0.0004695 -0.0017114 -0.00067227 0.00019485 0.00023678 0.0012007 0.00038969 -0.00050983 -0.0002475 0.0033235 0.0015768 6.6539e-05 -0.00024188 -0.0030052 0.0015703 -0.001269 -0.0014215 -0.0021517 -0.00026788 0.0023882 -0.002191 -9.2809e-05 -0.0011259 -0.00026104 0.0020917 0.0016834 0.00022751 0.002224 -0.0029458 0.0011696 -0.00037999 -0.00073196 -0.00096748 -0.0012089 -0.0018207 -0.0011911 2.4376e-05 -0.00020826 -0.0013886 0.0035701 -0.00070333 0.00038795 -0.0006958 -0.0018894 0.0013379 -0.0012215 -0.00065441
H19-5-3	0.00033795 0.0012994 -0.00086643 -0.00035084 0.00049911 0.000628 -0.00089659 -0.00012789 0.0015459 0.00078732 -0.00012147 -0.00064925 -0.00012004 0.0014468 -0.00079471 0.00033271 -0.00095056 0.00042195 -0.0012187 0.00029544 0.0013265 0.0017292 0.00056591 0.00011522 -0.00086211 -0.0012776 -0.00024116 -0.00012675 0.00065476 0.00091073 -0.001091 0.00010197 -0.001216 -0.0019229 -0.00047047 5.2872e-05 -0.0011293 -0.000245 -0.00092566 -0.0013729 -7.1616e-05 0.0004523 -0.00045219 -0.00065406 0.0028893 0.0010027 0.000897 -0.0014127 0.00038184 -0.00020821 -0.0018904 -0.0012095 -0.00039463 0.00088648 0.00067378 -0.0012391 -0.00019725 0.0013013 0.00082254 -0.00058991 -0.0016965 0.0011487 0.000997 0.0025792 0.00060407 0.00076638 -0.0014191 -0.00078943 -0.0010449 0.00059816 -0.00079323 0.0011515 3.2096e-05 0.00072468 -0.0011162 -0.00028963 5.0931e-05 -0.00050234 0.00025167 -0.00070733 -0.00033947 0.0015522 0.00048495 -0.000203 -0.00019265 -0.0012861 -0.00032368 -0.0015447 -0.0010123 0.00064338 0.00028555 0.00027063 0.0029131 -0.00079766 0.00014254 -0.0013668 -4.3622e-05 -0.00078961 -0.003014 -0.001967
H19-16-2	-0.00024307 0.0016248 -0.0011416 0.00019239 0.00059582 -0.0003003 -0.00057624 0.00089271 -0.00012833 0.0012827 -0.00017527 0.0010946 0.0026921 -0.00045835 -0.0018124 0.0010305 -0.001238 0.0002727 -0.00045678 -0.0011293 0.00020893 0.001094 0.00077126 0.00059729 0.00083786 -0.00049866 0.00085696 -0.0017301 -0.0023063 0.0032941 -0.0014218 -0.00060877 -0.0035487 -0.00046414 0.0004992 -0.0011991 0.00037358 -0.0010734 -0.0022607 0.00019087 0.0024499 0.0016255 -0.00072114 -0.00032848 -0.0010013 -0.0010246 0.0017047 -0.0017565 -0.00075167 -0.0011859 -0.0022248 0.0017437 -0.00019772 0.0017855 -3.7605e-05 -0.0017679 0.00038827 -0.0010479 0.001046 -0.00049511 -0.00030357 0.0027572 0.00096726 0.00062906 -0.00048463 -0.0013275 -0.0023354 0.0013904 0.00077198 0.0011439 -0.00094163 -0.00048067 -0.0015713 0.00035393 -0.0010026 -0.00041385 0.0014893 0.00318 -0.0008662 -0.000318 -0.0012991 -8.1118e-05 0.0016396 -0.00048658 -0.00057114 -0.0016292 0.00023029 0.0019034 0.0016579 -0.0010943 0.0027583 0.0016277 0.0023796 -0.0023546 -0.0027517 -0.0015038 -0.0013383 0.0012989 -5.7437e-05 -0.00083886
H19-30-5	-0.00080991 0.0030961 -0.00073666 -0.0014816 -0.0012158 0.001333 0.00059253 7.4417e-05 0.0047046 0.0023779 -0.0013953 0.00010335 -0.0010113 0.00076737 -0.00024419 -0.0020456 0.0010621 0.0010561 -0.0022946 0.0011246 0.001793 0.002007 -0.00074949 0.0011398 -0.00021049 0.00080998 0.0012663 -0.0015563 -0.0018824 0.0015175 0.00075819 0.0015346 -0.0021235 -0.0022678 -0.0024396 0.00023973 -0.00093105 -0.0010577 -0.00050208 -0.0011947 -0.00040698 0.0024205 -0.0012014 0.00061918 0.00080296 0.00051598 0.0020427 -0.0032574 0.00039611 0.0011958 -0.0019294 0.00066293 -0.0015584 -0.0002601 -0.00028135 -0.00027237 -0.0011232 0.0016152 0.00036804 0.00028536 -0.0010806 0.0023336 0.0020056 0.0021204 -0.0007748 0.0010699 -0.0017877 0.00037938 0.0014133 -0.001749 -0.00041431 0.002337 0.00057546 -0.0020393 -0.0015946 0.00084949 0.003448 -0.00051245 0.0006577 -0.00042691 -0.0023538 7.2607e-05 0.0021384 -0.00029348 0.0025621 -0.0027528 0.00059644 -0.00086047 0.00024976 -0.00075574 0.0021958 0.00047561 0.0035522 -0.0013169 0.00041376 -0.002258 -0.00024642 0.0011095 -0.00097892 -0.001315
H19-17-1	0.00073537 -0.00026234 -0.00074291 -0.00066805 0.000883 0.0017579 -0.001749 -0.00025599 -6.7375e-05 0.0023776 0.00016392 -0.0012243 -0.0019444 -0.00087721 -0.00049048 0.00031777 8.6688e-05 0.0016101 -0.0016328 -0.00075164 0.00033836 0.0040778 0.0011512 -0.00057854 -0.00046806 -0.0006068 -0.0020087 -0.00076514 0.0013867 0.00013966 -0.00032721 -0.00046576 -0.0012708 -0.0015533 -0.0016916 -0.0004244 -0.0016789 0.0010925 -0.00073531 0.00048981 -0.0016471 0.005776 -0.00084926 0.0015694 0.0024537 -0.00024217 0.0043872 -1.9518e-05 -0.0011017 -0.00011641 -0.0028319 0.00023582 -0.0012584 0.00026267 -0.0023352 0.0012923 -0.0025146 0.0009153 0.0028222 0.00048156 -0.00065389 0.0023397 -0.00085428 0.0035866 0.0010728 -0.0023801 -0.00040453 0.0010807 -0.0032437 -1.5352e-05 -8.3898e-05 0.0016255 5.2152e-05 -0.001582 0.00086742 0.00040105 0.00017385 0.00074867 0.0011362 -0.00075077 0.00097218 -0.0015008 0.0025029 -0.0014842 0.00085323 0.00021728 1.6789e-05 0.00072813 -0.00088993 -0.0011313 0.0010362 0.00055584 0.0038852 -0.0022418 -0.0017452 0.00067801 -0.0015722 -0.00023645 -0.0013248 -0.0028597
H19-17-2	0.0015942 -0.0013756 0.0011729 -0.00019928 0.0014096 0.00015637 -0.0010747 -0.001141 -0.00048819 -0.00067536 0.00076958 0.00050235 -0.0022874 -0.00061806 -0.0006002 0.00019231 0.00067329 0.00056344 0.00024965 0.0010597 -0.00020125 0.0035933 0.0021032 0.00016194 -0.00098288 -0.00031545 2.0827e-05 -0.00080303 0.0028667 -0.00020197 -0.0013253 -0.00069585 -0.00094649 -0.0015855 0.00066537 -0.0012449 -0.0011464 0.0014361 -0.0010097 0.0017165 -0.0005532 0.0048497 0.00065336 0.0013697 0.0016364 -0.00081086 0.0042337 0.00028759 -0.00051102 0.0011746 -0.0021752 0.00015914 -0.00018943 0.0010389 -0.0037715 -0.00067715 -0.0016492 0.0023728 0.0025938 0.0021669 -0.00061177 0.00098874 -0.00078331 0.0020876 0.00045707 -0.0017426 -0.0031887 0.0014247 -0.0024422 0.00047138 -0.0011535 0.0012348 0.0012592 -0.0026695 0.0011944 0.00015999 4.8123e-05 0.001183 0.0021691 0.00036457 0.0020809 -0.00241 0.0025194 -0.0019082 0.00048211 0.002315 0.00074388 0.001303 -0.0019244 0.00025217 0.0020383 4.1256e-05 0.0027526 -0.0029531 -0.002964 -0.0013786 -0.0017886 -0.00020914 -0.0011053 -0.0041893
H20-23-5	0.0014592 0.00048152 -0.00077376 -0.0012682 -0.00066241 0.00055025 -0.0022115 0.0010757 -0.00055003 0.0023005 9.9545e-05 0.0028398 0.00076051 0.00048931 0.00042775 -0.0018442 -9.2057e-05 -0.0019421 0.00091168 -0.003782 -0.00012593 -0.00014617 -0.0012044 0.00022981 -0.0034915 0.00039835 -2.6441e-05 0.00019108 -0.0012229 -0.00045934 -0.0021846 -0.00048477 0.00040493 -0.0011632 -0.0016104 0.00098533 0.0018552 -0.0029011 -0.00018508 -0.00067734 -0.00097228 0.00089493 0.0018979 -0.00040608 0.0025638 0.00014754 0.00019234 0.00070872 0.0018695 -0.0010419 -0.0011547 -0.0015043 -0.00066229 -4.3106e-05 0.0022784 -0.0013535 -0.0013391 0.0015674 -0.00015036 -0.0010219 0.00016866 0.0016196 0.0021166 -0.0017613 -6.753e-05 0.00063953 -0.0027017 -0.00024466 -0.00049573 -0.001669 0.0020977 0.0024114 0.00038646 2.91e-05 0.00094372 0.00057049 0.00029713 0.0014185 7.4787e-05 0.00014689 -0.0010297 0.002593 0.00072075 0.0022769 0.0024632 -0.0011494 0.00043156 0.00086072 0.00031076 -0.0013527 0.00033183 -0.00022482 0.0006443 -0.00083259 -0.00064792 -0.0023323 -0.00050367 -0.0009987 0.00040934 -0.0016909
H20-27-I	-0.00063507 0.001286 0.00048671 -0.0013169 0.00194 -0.0010189 0.00048194 0.0007216 0.0030575 8.9157e-05 -0.00076399 0.001592 -0.0051012 -0.0012894 -0.0023523 -0.0031395 -0.0029016 0.00011077 -0.00048465 0.00094306 0.003057 0.0027556 -7.6694e-05 -0.0012501 -0.00097892 0.0023216 -0.00019772 -0.00033406 0.0017856 0.00082251 0.00096101 -4.4752e-05 -0.0016077 0.00053363 0.0025433 0.0014952 0.00029129 0.0011767 -0.00081152 0.00032253 0.00057799 0.0019895 -0.00098589 -0.0031217 9.6853e-05 -0.0024349 0.0040969 -0.0012058 0.0023152 0.0010459 -0.0028419 0.00045001 -0.0014869 -0.0022148 -0.0021322 -0.0020492 0.00041457 -0.00025561 0.0045508 0.00087665 -0.0017276 -0.0005639 -0.00010618 0.00104 -0.00041235 0.0028924 0.00016319 -2.7521e-05 -0.0021564 -0.00017146 0.002096 0.0017265 0.0013277 0.00079914 0.00022896 0.0029144 -0.0001094 7.85e-05 -0.00011357 -0.0011537 0.00097614 0.0018619 -8.3025e-06 0.0036623 0.0025701 -0.0018791 -0.002276 0.0013083 -0.0023781 -2.2163e-05 0.0013542 -0.0015311 0.0004039 -0.00052611 -0.002638 -0.0023528 -0.0018031 -0.0013817 -0.0018722 0.00059194
H20-30-O	0.0011714 0.0019363 -0.0025719 -0.0004804 -0.0012459 0.0015622 -0.0010282 0.00017374 0.00082874 0.0016126 -0.0012479 0.0016809 -0.00055171 0.00051712 0.00059412 -0.00020069 -0.00019093 -0.00076146 -0.00087664 0.00014881 0.00080483 0.0017916 0.00024165 -0.0001862 -0.0026018 0.00044529 0.0017812 -0.00065829 -0.00090321 0.00025438 0.00087562 -0.0010602 0.0003352 -0.00072003 0.00020291 0.0009328 -0.00019364 -0.0023024 -0.00084128 -0.00068706 0.0002027 0.00148 0.0010505 0.0003554 0.0012921 -0.0020183 -0.0015096 0.00087958 0.00025686 0.0021801 -0.0022417 0.00096755 -0.000689 0.00055547 0.00080529 0.00065729 -0.0012077 0.001452 0.0029793 0.00019603 -0.00064174 0.0018373 0.0019518 0.0026174 0.00031484 -0.00089243 0.0010931 -0.00024777 -0.0011631 0.0011627 -0.00044427 -8.056e-05 -0.00074671 0.00024377 -0.00085919 0.0018068 0.001707 -7.6852e-05 0.0015053 -0.0017768 0.00076316 0.00019769 0.00055531 0.0022439 0.0019353 0.0017017 0.00078817 0.001622 -0.00086798 -0.00029741 -0.00071521 0.00061526 0.0028435 0.00038175 -0.00059999 -0.0012114 -0.0023506 6.5656e-05 -0.00054292 -0.0012827
H20-28-A	0.001722 -0.0014694 -0.0011717 -0.0018976 -7.8494e-05 -0.00032502 -0.0024426 0.00086847 0.0032997 0.0015466 -0.0012699 0.0012572 -0.0015881 0.00011533 -0.0018016 -0.00015743 0.00088271 5.2801e-05 -0.00076583 -0.00054583 0.0014842 0.00028373 -0.0001763 -0.00082866 0.00067755 0.00029814 0.0023988 -0.0024191 -0.0014208 0.0016523 0.0013192 0.00080716 -0.001785 -0.00047755 -0.00095854 -0.00063853 -0.000466 -0.0014357 0.0013788 -0.00032309 -0.000282 0.0017037 0.00012163 4.6055e-05 0.0022762 -0.00038828 0.0013607 -3.9634e-05 0.00034592 0.00026125 -0.0025662 0.0016207 -0.00083838 -0.0010363 -0.00057128 -0.00078939 -0.00046356 0.00061638 -0.00059425 0.00032273 -0.0028301 0.0013293 0.0026996 0.0021587 -0.0028955 1.5592e-05 1.1605e-05 -7.7193e-05 0.0016292 -0.00054451 -0.0016542 0.0027972 -0.00020038 0.00025495 -0.00063377 0.0002006 0.0014595 0.0019728 0.0036427 4.5682e-05 0.0003926 0.00033194 0.0016665 -0.0014653 0.0007803 -0.00096085 9.2655e-05 0.00074792 0.00022258 -0.0014378 0.0020236 -0.00019228 0.0027783 -0.00064136 0.0015235 -0.0024598 -0.00060151 0.00078446 -0.00063616 0.00033622
H20-22-1	0.0005493 0.00081346 -0.00067261 -0.0025239 0.00079823 0.00012401 -0.0010719 0.0021222 0.00080568 0.0010629 -0.0012436 0.00023804 0.0016857 0.0024418 -0.00069601 -0.0015712 0.00019588 0.00018954 -0.00032716 -0.0037497 0.00013053 0.00016802 0.00015907 2.1557e-05 -0.0014122 -0.0017993 -1.9492e-05 5.5263e-05 -1.0951e-05 0.0023921 -1.1265e-05 0.00035693 -0.00021551 -0.00044437 -0.0023251 0.001719 0.0028996 -0.0034069 -0.0002302 0.00021187 0.00071272 0.0017021 0.0011176 0.00022511 0.0011505 -0.00071674 0.0011276 0.00081757 -0.0011564 0.00087024 -0.0027171 0.00041712 -0.00061914 0.00077929 -5.914e-05 -0.0017685 0.00014546 -0.001918 0.0018748 -0.0013471 -0.00020342 0.00056738 0.0023728 0.0022931 -0.00087333 0.00099061 -0.0020794 -0.0017098 0.00034351 0.0013801 -0.0005831 -7.5637e-06 -0.00056714 0.0015277 2.53e-05 -0.00038341 0.00055623 9.2211e-05 -0.00041207 0.00012146 -0.00082035 0.0016004 0.00067865 0.0004108 -0.0012573 -0.0015667 0.00011427 0.00080515 -0.00035599 -0.00023137 0.00036293 0.00010462 0.0023525 -0.00081662 0.00066619 -0.0032993 0.00070402 0.0013824 0.00058321 -0.00059677
H20-3-4	0.0011109 0.001746 0.0016239 2.9641e-05 0.00071045 0.0018578 -0.0019515 0.0016621 -0.00098168 0.0019632 -1.6022e-05 -0.00017145 -0.0011561 0.0010759 -0.00027571 -0.00012745 0.00068789 0.001097 -0.0019581 0.0010073 6.1302e-05 0.0030431 0.00034101 -0.00042485 -0.00038438 -0.00093361 0.0016512 -0.00039063 -0.00060419 -0.0016441 -0.00036947 -0.000572 0.0014654 -0.0010955 -0.0017957 0.00038149 0.00095118 -0.00059085 -0.00027001 0.00056984 -0.0017891 0.0021917 0.0026753 -0.00019971 0.0010726 -2.3155e-05 0.00067911 7.2568e-05 0.00061159 0.00052497 0.001371 0.0014753 -4.6268e-05 0.0013655 -0.00047277 0.00047411 -0.0015142 0.0012966 0.0015024 0.0001654 0.0011565 0.0018698 -0.0015273 -0.0001233 0.0011186 -0.0014153 -0.0010186 0.00094075 0.00022008 -0.0001371 -0.0004045 0.00034236 -0.00028059 -0.00085266 -0.00043171 -0.00074669 -0.00051398 -0.00018828 0.00090677 -0.00041023 -0.00028539 0.00061164 0.00090224 -0.00021347 0.001577 -0.00037612 -0.00039125 -0.0019514 0.0004339 -0.0015839 0.00012078 -0.00057316 0.0015947 -0.0021797 -0.0005178 -0.00027909 0.00037352 0.00043338 -0.0012008 -0.0035833
H20-12-5	-0.00035625 0.0035149 -0.00098805 -0.0014643 0.0019658 0.0007185 -0.0025269 -0.00066026 0.0011224 0.0025836 -0.00019942 7.9471e-05 -0.0013141 0.0010733 -0.001412 -0.00060667 -0.00035771 0.00099743 -0.00010677 3.4533e-05 0.00021639 0.0029493 0.0030418 -0.00053219 -0.0028835 -0.00087532 0.00099953 0.00016555 -0.0030068 -0.00055086 0.0010372 -0.00010498 -0.00065587 -0.0012149 -0.00047949 0.00088963 0.0016841 -0.00027801 -0.0028855 -0.0021474 -0.00078467 0.0024621 -0.0022551 -0.00058174 0.0022566 -0.00036188 0.0028142 0.00017919 -0.0019367 0.00028814 -0.0027055 0.00078055 -0.00099125 0.0014681 -0.00079164 -0.0011213 -0.0014033 0.0016975 0.0035633 0.00047835 -0.0014607 0.0011065 0.00026958 0.001106 0.00061941 -0.0013567 -0.00011675 -0.00018629 -0.00093353 0.00020346 0.00017607 0.0013612 -7.2269e-05 -0.0020261 -0.00037701 0.0010339 0.0012109 0.0022775 -0.00025181 -0.00025173 -0.00016999 -0.0001339 0.0032826 0.0004757 0.001446 -0.00070125 0.00064216 -0.0006477 -0.0014419 -0.0014934 0.00093243 -1.0291e-05 0.0014947 -0.0026612 -0.0013828 -0.0017945 6.3803e-05 0.0015305 -0.00095446 -0.00015584
H20-12-4	-0.00036395 0.0015096 -0.00053958 -0.001723 0.0017293 0.00094988 -0.0014111 -0.00018716 0.0022195 0.0012779 -0.0010518 0.00073237 -0.0019005 -0.00025253 -0.0014704 -0.00092827 -0.00081437 0.0011114 -0.00094123 -0.002194 0.001352 0.0022111 0.0024619 0.00051765 -0.0027495 -0.0010755 0.0017368 -0.00064263 -0.00060393 -0.00022546 -0.00031168 0.00050576 -0.0021546 0.00064362 -0.001847 0.0012052 -0.0009529 7.3524e-05 -0.0021675 -0.00054252 -3.668e-05 0.0023897 -0.00043248 2.897e-05 0.002152 7.486e-05 0.00088071 0.00042933 -6.5872e-05 0.0023021 -0.0014612 -0.00037354 -0.00091609 -0.00048942 -0.0020126 5.013e-05 -0.0012124 -0.00011343 0.0017345 0.00058818 -0.0011338 0.0015837 0.00014414 0.0011238 -7.7466e-05 -0.00062792 -0.0018907 0.00076643 -0.00022285 -0.00039357 -0.001441 0.00019237 0.00094589 -0.0019752 -0.0014069 0.00032716 0.0022477 0.0014999 0.0016013 -0.00077184 0.00010967 0.00053002 0.0017988 -0.00011369 0.00079582 -0.00062866 6.9115e-05 -0.00085841 -0.0012854 -0.0013132 0.00064588 -6.3545e-05 0.0021409 -0.00080223 0.00026164 -0.0018124 -0.00026112 0.0020815 -0.00033319 0.0015449
H20-12-1	-0.00033914 0.0013177 -0.00080067 -0.0028973 -0.0003928 -0.00059339 -0.0010712 -0.00032675 -0.0001063 0.000737 -0.00020067 -0.00028595 0.00049153 0.0014576 -0.00083297 -0.00016805 -2.4868e-05 0.0003846 0.0012274 0.00028479 -0.0009012 0.0020573 0.0021924 -0.0012223 -0.0012362 0.00073448 0.0007149 -2.8215e-05 -0.0015857 -0.00035688 -0.00064338 -0.00018196 -0.0030137 -0.0034425 -0.0011446 -5.9217e-05 -0.00090499 -0.0012118 -0.0007092 -0.00019306 -0.0013504 0.00097798 0.0010997 -0.00030891 0.0007134 7.6555e-05 0.0017554 0.00077322 -0.0014434 0.003263 -0.0033327 0.0010798 -0.0013181 0.0014785 0.0010842 -0.00081679 0.00028284 0.00067739 0.0025481 0.0018039 0.00019947 0.00013037 0.00075384 0.00098894 0.0011787 -0.0010621 -0.001263 0.00060274 -0.00026032 0.00032488 -0.00027367 -4.8863e-05 0.00054428 6.0515e-05 0.0015892 0.00067844 0.0015013 0.0019659 0.0014791 -0.00011666 0.00015899 0.0023591 0.0018324 -0.0005581 0.0010749 -0.000553 -2.4907e-05 0.00022119 -0.0013561 -0.0007492 0.00018633 -0.0012039 0.0027259 -0.00070829 -0.0007777 -0.00093164 0.00019906 0.0023927 7.5117e-05 -0.0002497
H20-12-2	0.00020108 0.0015696 -0.0018999 -0.00096808 0.00077755 0.00077585 -0.0023003 0.00075334 0.0028285 0.0027536 -0.00074811 0.0020411 -0.0012072 0.00065733 -0.00020121 -0.0012181 8.4585e-06 -0.0021269 0.0005008 -0.0012044 0.002612 0.0017403 0.0010345 -0.00060447 -0.0021163 0.00035783 0.0014779 -0.00099855 -0.0021505 0.0012877 0.0016958 0.00092494 -0.0020716 0.00053326 -0.0015223 0.00015948 -0.00027409 0.00085505 -0.00024156 -0.0010675 -0.00083428 0.0017829 -0.00044303 -6.2678e-05 0.002358 0.00053858 0.0014331 0.00086601 0.0014055 0.0018168 -0.0030066 -0.00013667 -0.0018258 -0.0023894 0.00042776 -0.00112 -0.00044457 0.00013131 0.0018462 0.00089045 -0.0013003 0.00084032 0.0022568 0.00192 0.0002043 0.00054259 -0.00029999 0.0020429 -0.0005417 -0.0011433 0.00021466 0.00084187 0.001093 -0.001027 -0.0011701 0.0033623 0.0022393 0.0019023 0.0029574 -0.0018608 0.001392 0.0012195 0.0024214 0.00075468 0.0010566 -0.0011062 -0.00094456 0.0016377 -0.00026722 -0.0027031 -0.00014992 0.00056257 0.0030636 0.00010713 -0.0014386 -0.0031237 -0.00094517 0.0012264 -0.00082447 0.00080411
H20-3-2	0.0034652 0.0010474 0.00051245 -9.6812e-05 0.0018455 0.0027078 -0.0013399 0.00092333 0.0019761 0.00028627 -0.0027361 -0.000846 0.00070803 0.00088784 -0.00033442 -0.00030525 0.00060471 0.00013092 -0.0017622 -7.5691e-05 -0.00082902 0.0029401 0.0018187 -0.00019174 -0.0023375 -0.0010625 -0.00072202 -0.001779 0.00055608 0.0015954 0.0013729 0.00115 0.0011568 -0.0030793 -0.0025564 -0.0012218 -0.0017575 -6.7233e-05 -0.0015313 -0.001573 -0.00049152 0.00065093 0.0029593 -0.00023282 0.0021333 0.0001934 0.0012126 -0.001752 -0.002359 0.00030946 0.0012201 0.0012019 0.0015398 -0.00037374 -0.00012879 -0.0010874 -0.0015371 -0.00027131 0.00023808 -0.0012242 -0.000531 0.0021433 0.00057416 0.0013216 -0.0010992 0.00075113 -0.0012599 -0.0013392 8.648e-05 0.0001404 -5.374e-05 0.0015388 0.0020172 0.0005196 -0.00080694 -0.00026118 0.0011826 0.00064988 0.0019391 0.0017951 0.0015376 0.0012772 0.0022718 0.00063213 -0.00016367 0.0023246 -0.00033643 -0.00096225 7.335e-05 0.0011345 0.00017931 -0.00034777 0.001197 -0.0012876 0.00037831 -0.0014953 -0.0019497 0.0011893 -0.0026448 -0.0009342
H20-3-3	0.0014476 0.0026527 -0.00016652 -0.0015726 0.0006441 0.0015881 -0.00062571 0.0016295 0.0020222 -0.0008184 -0.00075997 -0.0006852 -0.0024906 0.00051358 -0.0010824 0.0009197 -0.0016005 -0.00049743 0.0005317 0.00033965 0.0025078 0.0019993 -0.00017444 0.0012458 -0.0039227 0.00094124 -0.00063569 -0.00056218 -0.0037395 0.0013232 -0.00024594 0.00015902 0.00062041 -0.0021197 -0.00035924 -0.00056629 -0.0020646 -0.00027299 -0.00069989 0.00023758 0.001028 0.0023267 0.0009802 0.00056381 0.0019415 -0.00040677 0.0020741 -0.0026783 -0.0018902 0.0005711 -0.00082514 0.0020365 -0.00065232 -0.0011751 0.0010084 -2.2194e-05 6.4007e-05 0.00077558 0.0024799 -0.00010978 -0.0039812 0.0030311 0.0010051 0.00092347 -0.00049215 0.0017646 -0.0011291 0.00032671 -0.0015204 0.0018629 0.0017453 0.0028304 0.0016828 0.0011492 -0.00055728 0.00024495 -0.00022215 0.0019111 0.0018028 -0.00033547 0.00053718 -0.00028922 0.0019269 0.0019743 0.0009464 0.0024309 0.0014612 -0.0019014 -0.0010829 -0.0016201 -0.00044963 -0.0024066 0.001269 -0.0010828 -3.5166e-05 -0.0015188 -0.0018632 0.0011674 -0.0032249 -0.0014994
